{"learner":{"attributes":{"best_iteration":"99","best_ntree_limit":"100","scikit_learn":"{\"use_label_encoder\": null, \"n_estimators\": 100, \"objective\": \"binary:logistic\", \"max_depth\": 10, \"max_leaves\": null, \"max_bin\": null, \"grow_policy\": null, \"learning_rate\": null, \"verbosity\": null, \"booster\": null, \"tree_method\": null, \"gamma\": 0.0, \"min_child_weight\": 20, \"max_delta_step\": null, \"subsample\": 1.0, \"sampling_method\": null, \"colsample_bytree\": 0.8549189050507754, \"colsample_bylevel\": 0.8283418052168632, \"colsample_bynode\": 0.9124309155544095, \"reg_alpha\": null, \"reg_lambda\": null, \"scale_pos_weight\": null, \"base_score\": null, \"missing\": NaN, \"num_parallel_tree\": null, \"random_state\": null, \"n_jobs\": null, \"monotone_constraints\": null, \"interaction_constraints\": null, \"importance_type\": null, \"gpu_id\": null, \"validate_parameters\": null, \"predictor\": null, \"enable_categorical\": false, \"feature_types\": null, \"max_cat_to_onehot\": null, \"max_cat_threshold\": null, \"eval_metric\": null, \"early_stopping_rounds\": null, \"callbacks\": null, \"kwargs\": {\"alpha\": 0.0, \"eta\": 0.36299016897828007, \"lambda\": 0.0}, \"classes_\": [0, 1], \"n_classes_\": 2, \"_estimator_type\": \"classifier\"}"},"feature_names":["state","term","no_emp","created_jobs","retained_jobs","gross_appv","recession","secured_loan","%_gov_secured","is_rural","low_doc","new_business","econ_sector","inflation_on_loan","unemployment_on_loan"],"feature_types":["int","int","int","int","int","float","int","int","float","int","int","int","int","int","int"],"gradient_booster":{"model":{"gbtree_model_param":{"num_parallel_tree":"1","num_trees":"100","size_leaf_vector":"0"},"tree_info":[0,0,0,0,0,0,0,0,0,0,0,0,0,0,0,0,0,0,0,0,0,0,0,0,0,0,0,0,0,0,0,0,0,0,0,0,0,0,0,0,0,0,0,0,0,0,0,0,0,0,0,0,0,0,0,0,0,0,0,0,0,0,0,0,0,0,0,0,0,0,0,0,0,0,0,0,0,0,0,0,0,0,0,0,0,0,0,0,0,0,0,0,0,0,0,0,0,0,0,0],"trees":[{"base_weights":[-1.1045411E0,2.787886E-1,-1.5621713E0,-3.868755E-1,9.1535336E-1,-1.0990334E0,-1.7308658E0,5.6459755E-1,-6.2467754E-1,4.800715E-1,1.2870265E0,-1.8842832E0,1.349489E-1,-1.9520155E0,-1.4762646E0,1.3431052E0,-2.847384E-1,-1.7647059E0,-3.3570597E-1,9.969104E-1,-1.333426E0,1.6535132E0,1.0285894E0,-1.9429055E0,-1.8156971E0,-8.646288E-1,5.4569185E-1,-1.5014058E0,-1.9610201E0,-8.1968176E-1,-1.6841071E0,1.4628265E0,6.654028E-1,-6.257005E-1,1.1090047E0,-1.5637466E0,-1.8794694E0,4.450372E-1,-8.7800074E-1,5.1085514E-1,1.6344657E0,-1.0647545E0,-1.4597466E0,1.6892403E0,8.451128E-1,-9.0720797E-1,1.5640864E0,-1.9124472E0,-1.9851476E0,-1.5304976E0,-1.8696742E0,-6.204967E-1,-1.385764E0,1.1147667E0,-2.7664328E-1,-1.7337716E0,-7.640157E-1,-1.9696342E0,-1.8983943E0,1.5789474E0,-9.388458E-1,-1.7384485E0,-6.003497E-1,1.4984926E0,8.588589E-1,8.599752E-1,3.2258064E-2,-8.450273E-1,1.0466666E0,1.2713473E0,3.018868E-1,-1.7283951E-1,-1.5927835E0,-1.8091651E0,-1.9392E0,8.2021266E-1,1.0551351E-1,-1.8016651E0,-4.3939307E-1,8.226555E-1,-9.7982246E-1,1.6900717E0,8.6720866E-1,-1.1340405E0,-4.3171805E-1,-1.5107006E0,-9.6263736E-1,1.7244937E0,1.4893616E0,2.0289855E-1,1.3007712E0,-7.5648224E-1,-1.425943E0,1.6235234E0,1.0446428E0,-1.9404646E0,-1.8152037E0,-1.9874524E0,-1.8913044E0,-1.36E0,-1.7829766E0,-8.108108E-1,-1.8771654E0,-3.6989737E-1,-8.8263357E-1,-1.4456693E0,-2.8846154E-1,1.223604E0,-6.2417996E-1,-8.966814E-1,6.2949145E-1,-1.8971963E0,-5.442177E-1,-1.8162544E0,-1.4876033E-1,-1.9777223E0,-1.8934438E0,-1.9408011E0,1.3846154E0,-1.7460318E0,1.8603089E0,-1.2214168E0,-3.0476E-1,-1.9273251E0,-1.5592428E0,1.0663073E0,-1.5394896E0,1.5382756E0,1.205926E0,6.722689E-1,1.3263158E0,7.4418604E-1,1.2E0,-2.6206896E-1,4.4660193E-1,-1.0776868E0,8.717949E-1,1.2380953E0,2.5641027E-1,1.357377E0,7.05036E-1,7.522936E-1,-1.7475729E-1,-1.4232987E0,-1.7297298E0,-1.7403278E0,-1.8723661E0,-1.9493817E0,-1.8095238E0,1.0576261E0,-1.183432E-1,-2.8594938E-1,5.3907496E-1,-1.8816892E0,-1.5998275E0,-6.926261E-1,3.55716E-1,1.1285672E0,-8.960894E-1,-8.97127E-1,-1.5375E0,1.2235295E0,1.7146697E0,5.5581945E-1,1.2807571E0,-1.0723085E0,-1.6908213E0,1.7142858E-1,-9.508197E-1,-1.7108978E0,-1.3778111E0,-1.2182411E0,-4.3243244E-1,1.5980424E0,1.764343E0,8.5E-1,1.5128677E0,5.405405E-1,-1.875E-1,1.1239669E0,1.5918367E0,4.0601504E-1,-7.993348E-1,-1.3843018E0,-1.8113208E0,1.6636553E0,1.1691581E0,8.9596605E-1,1.5989445E0,-1.9446876E0,-1.853211E0,-1.8479283E0,1E-1,-1.9904734E0,-1.9612153E0,-1.8490566E0,-1.923445E0,-2.4096385E-2,-1.3983402E0,-1.796575E0,-1.4634147E0,-9.052632E-1,-7.111111E-1,-1.8539209E0,-1.9430835E0,-5.048754E-1,3.4920636E-1,-9.845168E-1,-2.690583E-2,-1.6190476E0,-1.2230216E0,-0E0,-4.6875E-1,1.4696606E0,6.1965555E-1,-9.2896175E-1,4.1791044E-2,-7.6054215E-1,-1.2360394E0,9.518101E-1,-8.286334E-1,-1.9248269E0,-1.4237288E0,9.62963E-1,-1.1173708E0,-1.7197453E0,-1.9365079E0,4E-1,-9.6907216E-1,-1.9807383E0,-1.9639324E0,-1.812052E0,-1.9959866E0,-1.9489262E0,-1.8758816E0,1.2E0,1.5897436E0,1.879397E0,1.5833334E0,-1.3516192E0,-7.8121954E-1,-5.9289455E-1,3.2286713E-1,-1.9596647E0,-1.7764425E0,-1.3761792E0,-1.963457E0,7.423581E-1,1.991684E0,-1.2461462E0,-2E0,1.6050687E0,1.3231293E0,1.6056339E0,1.0994371E0,1.0689656E0,2.9508197E-1,1.5E0,4.516129E-1,1.4642857E0,8.817204E-1,1.12469435E-1,-1.2121547E0,1.2081218E0,-0E0,1.7281554E0,1.1052631E0,1.4706868E0,1.144654E0,-1.1188811E0,-1.4834254E0,-1.372973E0,-1.763386E0,-1.7906138E0,-1.6067146E0,-1.7602997E0,-1.8938307E0,-1.9206009E0,-1.9826411E0,-1.9266055E0,-1.7317073E0,1.1586207E0,5.824082E-1,-7.4201477E-1,7.950117E-2,-1.5821168E0,7.7856874E-1,-1.1737452E0,1.068297E0,-1.8916622E0,-1.6E0,-1.8804123E0,-1.3980726E0,6.273398E-1,-1.1815126E0,-7.0454544E-1,5.100634E-1,6.509679E-1,1.6028538E0,-1.2824982E0,3.9225182E-1,1.6949153E-2,-1.0093652E0,-1.2682927E0,-1.6302521E0,1.4705882E0,1.0588236E0,1.8330411E0,1.6652008E0,9.19708E-1,-1.2244898E-1,1.493671E0,6.5E-1,-1.2741935E0,-6.7304623E-1,-1.755102E0,-1.6330276E0,-1.7557666E0,-1.4882154E0,-1.5338223E0,-1.2449688E0,-1.4018692E0,-1.12E0,1.7580872E0,1.5497026E0,1.7861032E0,1.3970588E0,1.7974026E0,1.3570412E0,7.906977E-1,1.5044248E0,-1.5559772E-1,-1.0649961E0,-9.0909094E-1,-1.50447E0,1.7816092E0,1.5727295E0,5E-1,1.4764638E0,1.5009174E0,5.16129E-1,1.8518518E0,1.5302013E0,-1.9544855E0,-1.8402367E0,-1.6691729E0,-1.8920635E0,-1.978979E0,-1.6749257E0,-1.9863076E0,-1.9982877E0,-1.8830409E0,-1.9709302E0,-1.8554217E0,-1.968254E0,-1.5039859E0,-1.022082E0,-1.8389438E0,-1.6407768E0,-1.8741982E0,-1.7545038E0,-1.9389458E0,-2E0,-8.0563796E-1,3.0923694E-1,1.8060201E-1,1.4105263E0,-1.6080832E0,-5.0260293E-1,-9.90991E-1,9.285714E-1,-1.5313808E0,-1.7966101E0,-9.22449E-1,-1.3480475E0,1.7447253E0,1.2223268E0,1.2392982E0,3.6809117E-1,-1.3165829E0,7.8518516E-1,-5.316456E-1,1.4285715E0,-2.9124066E-1,-1.763733E0,-1.002437E0,-1.5555556E0,-4.2231077E-1,1.3874329E0,-1.7241379E0,-2.8747434E-2,-1.9194915E0,-2E0,-3.5555556E-1,-1.6747967E0,1.3170732E0,3.846154E-2,-4.6464646E-1,-1.4947368E0,-1.9825405E0,-1.7738359E0,-1.9682755E0,-1.8412292E0,-1.9713535E0,-1.6125561E0,-1.9989035E0,-1.9914237E0,-1.9638009E0,-1.8352822E0,-1.7559322E0,-1.9219258E0,1.4832536E0,1.9493244E0,-1.5201073E0,-9.804356E-1,-1.3884583E0,-2.796158E-1,-4.1787624E-1,-1.1544118E0,-3.3776867E-1,6.194853E-1,-1.5011442E0,-1.9696134E0,-1.9832609E0,-1.2837423E0,-1.5540322E0,-3.4384385E-1,-1.9023103E0,-1.9992278E0,1.2707775E0,-1.5764706E0,1.95E0,2E0,-1.4246913E0,-5.0639385E-1,1.6259427E0,1.4587737E0,1.519337E0,1.0088495E0,1.3159851E0,8.787879E-1,1.6279069E0,1.3658537E0,5.585586E-1,9.90099E-2,4.9315068E-1,-8.3760685E-1,-8.337062E-1,-1.4348398E0,1.3846154E0,5.365854E-1,8.699552E-1,1.4394904E0,1.2758621E0,1.5176715E0,1.3207548E0,9.685535E-1,-9.782609E-1,-1.372549E0,-1.4383562E0,-1.6714286E0,-1.2653061E0,-1.4942529E0,-1.800995E0,-1.592068E0,-1.6756756E0,-1.8083333E0,-1.364486E0,-1.862069E0,-1.8701298E0,-1.6106194E0,-1.9053435E0,-1.7142857E0,-1.9293448E0,-1.7798165E0,-1.9417475E0,-1.9886283E0,5.906433E-1,1.2391214E0,1.1173184E-1,7.896679E-1,-1.3274336E0,-5.170068E-1,-1.5204678E-1,1.003891E0,-1.5300316E0,-1.9183674E0,1.0315399E0,-2.8460038E-1,-1.3976834E0,-9.498069E-1,1.1778426E0,5.7471263E-1,-1.9264764E0,-1.8628719E0,-1.8666667E0,-1.2E0,-1.75E0,-1.8947369E0,-1.0790378E0,-1.6401565E0,3.078534E-1,7.460132E-1,-1.871875E0,2.3461539E-1,-8.91455E-1,1.4736842E-1,1.0014025E0,1.9173104E-1,1.5738143E0,-7.188894E-1,8.958333E-1,1.6308199E0,3.4757835E-1,-1.840156E0,6.764706E-1,-1.5602838E-1,2.9850745E-1,-3.529412E-1,-8.8391036E-1,-1.4209354E0,-1.4909091E0,-1.75E0,1.245283E0,1.7142857E0,1.2636817E0,6.666667E-1,1.6685715E0,1.8560575E0,1.6973895E0,1.5130143E0,1.2447553E0,5.648855E-1,1.7073171E0,1.3806452E0,-1.2278134E0,-1.6190476E0,-1.2226721E0,-3.1578946E-1,-1.7217392E0,-1.8765432E0,-1.4020618E0,-1.6504854E0,-1.4448087E0,-1.7948718E0,-1.1026616E0,-1.4171779E0,-9.0909094E-1,-1.2857143E0,1.4945055E0,1.8487712E0,1.5929203E0,1.4611399E0,1.814609E0,1.6694398E0,1.0548524E0,1.6612378E0,1.8189781E0,1.6235294E0,1.4529237E0,1.1133502E0,-8.1675395E-2,-8.6868685E-1,-1.3993174E0,-8.8955224E-1,-1.2149533E0,-5.494506E-1,-1.5645412E0,-1.2285714E0,1.6248904E0,1.8165138E0,1.6181136E0,1.3087249E0,7.6447874E-1,1.4184397E-2,1.5826645E0,1.2096775E0,1.617647E0,1.1532847E0,6.520376E-1,1.3913043E-1,1.5978836E0,1.4128441E0,-1.8531469E0,-1.9586735E0,-1.9256198E0,-1.7926267E0,-1.8575343E0,-1.9396226E0,-1.9853301E0,-1.9047619E0,-1.7483345E0,-1.5262369E0,-1.9908229E0,-1.9730458E0,-1.9921569E0,-2E0,-1.9120879E0,-1.85E0,-1.9855596E0,-1.9486239E0,-1.4531168E0,-1.7822349E0,-9.299363E-1,-1.2883435E0,-1.7955556E0,-1.902439E0,-1.5412186E0,-1.849624E0,-1.8663504E0,-1.9631337E0,-1.3463035E0,-1.7892644E0,-1.9413172E0,-1.7619047E0,-4.8600224E-1,-1.4329671E0,-8.857143E-1,5.046729E-1,9.7744364E-1,-4.7311828E-2,-1.6827095E0,-1.444227E0,3.976608E-2,-8.7122416E-1,-4.651163E-1,-1.3235294E0,3.0927834E-1,1.4015749E0,-1.6692668E0,-1.4199244E0,-1.8458961E0,-1.5315316E0,-5.7471263E-1,-1.3187773E0,-1.2618785E0,-1.6336997E0,1.8016137E0,1.5871137E0,1.1017326E0,1.5117271E0,1.372849E0,8.707124E-1,1.4933103E-1,7.929589E-1,-1.1436031E0,-1.6261683E0,-2.5503355E-1,-1E0,-1.1538868E0,6.527778E-1,-1.1960784E0,-1.8415043E0,-1.590723E0,-1.3654618E-1,-1.6460674E0,-1.2127659E0,1.5573123E0,-1.0892143E0,1.7174312E0,1.2142513E0,-1.8555957E0,-1.493671E0,-7.692308E-1,2.7906978E-1,-1.9389111E0,-1.842932E0,-3.652174E-1,5.3763443E-1,-1.9803934E0,-1.9904302E0,-1.8392283E0,-1.6285714E0,-1.9567177E0,-1.9900627E0,-1.7272727E0,-1.8743801E0,-1.4E0,-1.9824775E0,-1.6758894E0,-1.5599344E0,-1.9967453E0,-2E0,-1.9452055E0,-1.9945105E0,-1.9692464E0,-1.9033037E0,-1.7715392E0,-1.9057816E0,-1.8525345E0,-1.4871795E0,-1.9918699E0,-1.8889952E0,1.6302521E0,1.2888889E0,1.8139535E0,1.987041E0,-1.4332002E0,-1.7603279E0,-4.9532712E-1,-1.4175439E0,-1.7784371E0,-1.0877193E0,-7.855787E-1,3.707317E-1,-6.7346936E-1,-9.059233E-2,-1.3750824E0,1.7565217E0,1.3251156E-1,-1.2682927E0,9.0816975E-1,-1.4405361E-1,-1.6229508E0,-8.7323946E-1,-8.6315787E-1,-1.9722291E0,-1.4392524E0,-1.9927939E0,-1.5438762E0,-1.2159329E-1,-1.090739E0,-1.8824179E0,3.153409E-1,-1.0828025E0,-1.9542627E0,-1.6613953E0,-1.9903846E0,-1.9995977E0,4.039409E-1,1.462882E0,-1.7426901E0,-1.2380953E0,3.030303E-1,-1.5371466E0,-1.1428572E0,1.8554217E0,1.5858951E0,1.7062557E0,1.3920972E0,1.6111112E0,1.25E0,1.6058394E0,8.742515E-1,1.3898305E0,1.1707317E0,1.5428572E0,6.5753424E-1,1.1525424E0,8.2587063E-1,1.5151516E-1,6.926829E-1,2.2988506E-2,-1.3531915E0,-7.233273E-1,-1.923077E-1,-1.4942529E0,1.5458515E0,9.39759E-1,5.420561E-1,1.1724138E0,1.3882353E0,1.5884244E0,-1.05E0,-9.230769E-1,-1.2907802E0,-1.5221477E0,-1.7647059E0,-1.483871E0,-1.770566E0,-1.9434628E0,-1.4105263E0,-1.803681E0,-1.8405797E0,-1.7647059E0,-1.2E0,-1.5229357E0,-1.8072289E0,-1.9E0,-1.9478828E0,-1.8678161E0,-1.9873016E0,-1.9166666E0,-2E0,-1.8899083E0,-1.9936908E0,-1.942446E0,1.0604026E0,2.2797927E-1,1.4467409E0,1.1659193E0,7.4698794E-1,-8E-2,9.825784E-1,3.2635984E-1,-3.0985916E-1,-1.0617284E0,8.604954E-2,-8.5714287E-1,1.2090396E0,5.5E-1,-9.657321E-1,-1.6448953E0,-1.8064516E0,-2E0,1.5007704E0,8.294625E-1,1.7910448E-1,-7.9183674E-1,-1.018868E0,-1.6601307E0,-1.1538461E0,-1.1764706E-1,9.9709135E-1,1.4809756E0,2.3170732E-1,9.7508895E-1,-1.9600761E0,-1.7704195E0,-1.8221666E0,-1.9063545E0,-1.9166666E0,-1.735849E0,-1.264E0,-7.4396133E-1,-1.7353383E0,-1.0196079E0,5.6818184E-2,1.0119522E0,8.5328186E-1,3.006012E-1,-1.915526E0,-1.6982893E0,1.1339285E0,8.383234E-2,-5.769231E-1,-9.9088144E-1,1.0581222E0,9.52381E-2,7.553551E-1,-1.8873668E-1,1.6624746E0,1.1606805E0,-3.946785E-1,-1.379518E0,6.666667E-1,1.1904762E0,1.6608933E0,1.3476394E0,8.235294E-1,-6.5486723E-1,-1.9022119E0,-1.5209581E0,8.148148E-1,3.6144578E-1,-9.647059E-1,-3.6363637E-1,-1.7078651E0,-1.2324723E0,1.4736842E0,9.885057E-1,1.8103448E0,1.3898305E0,1.8783971E0,1.709091E0,1.5322862E0,1.7160933E0,1.5935829E0,1.3769752E0,-1.0976431E0,-1.8019803E0,-1.0588236E0,-1.375E0,3.3070865E-1,-6.403162E-1,-1.7460938E0,-1.5238096E0,-1.8371041E0,-1.9611651E0,-1.5247525E0,-1.2688172E0,-1.6475096E0,-1.3639144E0,-1.7345133E0,-1.9534883E0,-1.0615835E0,-1.364486E0,-1.1803279E0,-1.5588236E0,1.6444445E0,1.3478261E0,1.8834951E0,1.7264957E0,1.6428572E0,1.5174603E0,1.4943396E0,1.3884298E0,1.9017125E0,1.764756E0,1.7894737E0,1.578125E0,1.36E0,5.2873564E-1,1.5514019E0,1.9139785E0,1.908397E0,1.7635934E0,1.1622419E0,1.6E0,1.1847134E0,8.433735E-1,1.8410042E-1,-3.480084E-1,-1.037594E0,-1.5562806E0,-1.0114766E0,-4.5652175E-1,-1.7185185E0,-1.4530832E0,1.6796714E0,1.5840979E0,1.8234593E0,1.4408603E0,1.5702344E0,1.7338591E0,9.930716E-1,1.488801E0,4.5544556E-1,9.6202534E-1,1.4793389E0,1.942446E0,1.3766234E0,9.361702E-1,1.298969E0,1.7170419E0,4.4813278E-1,1.2820513E0,3.4375E-1,-1.1764706E-1,1.735849E0,1.4216868E0,-1.8197184E0,-1.907834E0,-1.9665302E0,-1.9248178E0,-1.9683795E0,-1.8787879E0,-1.6618075E0,-1.8780953E0,-1.8326997E0,-1.9215686E0,-1.8759689E0,-2E0,-1.968254E0,-1.9897436E0,-1.7802198E0,-2E0,-1.5590551E0,-1.7679739E0,-1.5774648E0,-1.2323233E0,-1.9310344E0,-1.9919028E0,-1.9773692E0,-1.8857143E0,-2E0,-1.9631337E0,-1.9375E0,-1.9943101E0,-1.8985507E0,-2E0,-1.3792676E0,-1.852349E0,-1.5449102E0,-2E0,-1.0777777E0,-4.5045045E-1,-1E0,-1.5662651E0,-1.8630137E0,-1.670886E0,-1.9429735E0,-1.7419355E0,-1.4074074E0,-1.7264957E0,-1.8530967E0,-1.9000721E0,-1.981982E0,-1.9227053E0,-1.4792899E0,-1.0909091E0,-1.7561609E0,-1.8978723E0,-1.9647058E0,-1.9300401E0,-2.0502092E-1,-8.0963856E-1,-1.5667189E0,-1.1208792E0,7.368421E-1,3.0196938E-1,-3.580247E-1,6.666667E-1,-1.749175E0,-1.3990611E0,-1.888E0,-1.019157E0,6.547085E-1,-1.7721519E-1,-1.1720569E0,-3.9175257E-1,-1.5244756E0,-1.7108433E0,-1.4805195E0,-1E0,-1.9543726E0,-1.7604791E0,-1.9130434E-1,-8.767123E-1,-1.0724638E0,-1.6923077E0,-1.3216081E0,-8.2568806E-1,-1.7419355E0,-1.5777777E0,1.8250667E0,1.612069E0,1.6768292E0,1.0239234E0,1.2652318E0,6.5336657E-1,1.6493425E0,7.2401434E-1,9.8245615E-1,1.4206009E0,6.572438E-1,1.5E0,2.931664E-1,-5.4E-1,9.3233085E-1,5.113924E-1,-1.4942529E0,-8.516746E-1,-1.5416666E0,-1.6949153E0,-7.925608E-1,-1.3657718E0,1.1175693E0,2.9042223E-1,-1.0123457E0,-1.3170732E0,-1.8734794E0,-1.6875E0,-1.4479419E0,-1.775E0,5.1111114E-1,-5.031447E-1,-1.7974683E0,-1.5705264E0,-9.7029704E-1,-1.4942529E0,1.1666666E0,1.7961783E0,-3.9053255E-1,-1.2920963E0,1.8277886E0,1.6200346E0,1.5744681E0,9.890454E-1,-1.9714285E0,-1.7372262E0,1.1659193E-1,5.785124E-1,-1.958951E0,-1.9109697E0,-1.7402598E0,-1.9122807E0,-1.9844234E0,-1.9784535E0,-1.9907475E0,-1.9238095E0,-2E0,-1.8043053E0,-1.4970059E0,-1.8230089E0,-1.9310877E0,-1.9661855E0,-1.9912052E0,-1.967655E0,-1.7701149E0,-1.6853932E0,-1.9694656E0,-1.8481013E0,-1.831579E0,-1.9897933E0,-1.6565657E0,-1.8787879E0,-1.5383686E0,-1.7674419E0,-2E0,-1.9895014E0,-1.9961071E0,-1.9694656E0,-1.9508928E0,-1.9809773E0,-1.6847291E0,-1.94605E0,-1.7943337E0,-1.5E0,-1.939394E0,-1.862069E0,-1.756906E0,-1.9209486E0,-1.974026E0,-2E0,-1.9398496E0,-1.8362573E0,1.706422E0,1.8926175E0,1.995169E0,1.9183674E0,-1.0342801E0,-1.5543656E0,-1.8657925E0,-1.2871972E0,-6.901042E-1,-2.0542635E-1,-2.5882354E-1,-1.4531646E0,-1.8063064E0,-1.5772358E0,-9.258098E-1,-1.5254238E0,-1.1234568E0,-2.4630542E-1,1.5529412E0,-8.089887E-2,-1.0502283E-1,-9.147287E-1,-3.688716E-1,2.6310584E-1,-1.7469479E0,-8.3116883E-1,-1.923077E-1,7.1244633E-1,-5.185185E-1,-1.51417E0,1.2812071E0,5.882353E-1,2.857143E-1,-5.0617284E-1,-1.6751269E0,-1.4042553E0,-1.9849652E0,-1.81082E0,-1.9971029E0,-1.9837067E0,-1.8203125E0,-1.4564546E0,1.5697211E0,-2E0,-1.1798881E0,-4.5194143E-1,-1.94413E0,-1.6956619E0,-2.2064777E-1,1.5761905E0,-1.6399027E0,-5.457389E-1,-1.9592004E0,-1.6626506E0,-1.9074447E0,1.3580247E0,-1.95E0,-2E0,-2E0,-1.998638E0,-1.7391304E-2,9.5454544E-1,1.014218E0,1.5971631E0,-1.6626506E0,-1.8181819E0,-1.6487603E0,-1.3417722E0,-8.125E-1,-1.3777778E0],"categories":[],"categories_nodes":[],"categories_segments":[],"categories_sizes":[],"default_left":[1,1,1,1,1,1,1,1,1,1,1,1,1,1,1,1,1,1,1,1,1,1,1,1,1,1,1,1,1,1,1,1,1,1,1,1,1,1,1,1,1,1,1,1,1,1,1,1,1,1,1,1,1,1,1,1,1,1,1,1,1,1,1,1,1,1,1,1,1,1,1,0,1,1,1,1,1,1,1,1,1,1,1,1,1,1,1,1,1,1,1,1,1,1,1,1,1,1,1,1,1,1,1,1,1,1,1,1,1,1,1,1,1,1,1,1,1,1,1,0,1,1,1,1,1,1,1,1,1,1,0,1,1,0,0,1,1,1,0,1,0,0,0,1,1,1,1,1,1,1,1,1,1,1,1,1,1,1,1,1,1,1,1,1,1,1,1,0,0,1,1,1,0,1,1,0,1,0,0,1,0,0,1,1,0,1,1,1,1,1,1,1,0,1,1,0,1,0,1,1,0,0,0,1,1,1,1,1,1,1,1,0,0,1,1,1,1,1,1,1,1,1,0,0,1,0,0,1,1,1,1,1,1,1,1,0,0,1,0,1,1,1,1,1,1,1,1,1,1,1,0,1,1,0,1,0,0,1,1,0,0,1,1,1,0,0,1,1,1,1,1,1,1,1,1,1,1,1,1,0,0,1,1,1,1,1,1,1,1,1,1,1,1,1,1,1,1,1,1,1,1,1,1,0,1,1,1,1,1,1,0,1,0,1,1,0,0,1,1,1,1,0,1,1,1,1,1,1,1,0,0,1,1,1,1,1,1,1,1,1,1,0,1,1,1,0,1,1,1,1,1,1,1,0,0,1,1,1,1,1,1,1,0,1,1,1,0,1,1,1,1,1,1,1,1,1,1,1,1,1,0,1,0,1,1,1,1,1,1,1,1,1,0,0,0,0,1,0,0,1,1,1,1,1,1,1,1,1,1,1,1,1,1,1,1,1,1,1,1,1,1,1,1,1,1,1,1,1,1,1,1,0,0,1,1,1,1,1,1,1,1,0,0,1,0,1,0,1,1,1,0,1,0,0,1,0,0,1,0,1,1,0,0,1,1,0,1,1,1,0,0,1,0,1,0,1,1,1,1,1,1,0,1,1,1,1,1,1,1,1,1,1,1,1,1,0,0,0,1,1,1,1,1,1,1,1,0,1,1,1,1,1,1,1,1,1,0,0,0,1,1,0,0,0,0,1,0,1,1,1,1,0,0,0,0,1,0,1,1,1,1,1,0,1,1,1,1,0,0,1,1,1,1,1,1,1,1,1,0,1,1,1,0,1,1,0,0,1,0,1,1,1,1,1,0,1,1,1,0,1,1,1,0,1,1,1,1,1,1,1,1,1,1,1,1,1,0,0,0,1,1,1,1,1,1,1,1,1,0,1,1,1,1,1,0,1,1,0,1,0,1,1,1,1,1,0,0,0,0,1,1,1,0,1,1,1,1,1,1,1,1,1,1,1,1,1,1,0,0,1,1,1,1,1,1,1,1,1,1,1,1,1,0,0,1,1,1,0,0,1,1,1,1,1,1,1,1,0,1,1,1,1,0,0,1,1,1,1,1,1,0,1,1,0,0,1,1,1,1,1,1,1,1,1,1,1,1,1,0,1,1,1,1,1,0,0,1,0,1,1,1,1,1,1,1,1,1,1,1,1,1,1,0,0,1,1,0,0,0,0,0,0,0,0,0,0,0,0,0,0,0,0,0,0,0,0,0,0,0,0,0,0,0,0,0,0,0,0,0,0,0,0,0,0,0,0,0,0,0,0,0,0,0,0,0,0,0,0,0,0,0,0,0,0,0,0,0,0,0,0,0,0,0,0,0,0,0,0,0,0,0,0,0,0,0,0,0,0,0,0,0,0,0,0,0,0,0,0,0,0,0,0,0,0,0,0,0,0,0,0,0,0,0,0,0,0,0,0,0,0,0,0,0,0,0,0,0,0,0,0,0,0,0,0,0,0,0,0,0,0,0,0,0,0,0,0,0,0,0,0,0,0,0,0,0,0,0,0,0,0,0,0,0,0,0,0,0,0,0,0,0,0,0,0,0,0,0,0,0,0,0,0,0,0,0,0,0,0,0,0,0,0,0,0,0,0,0,0,0,0,0,0,0,0,0,0,0,0,0,0,0,0,0,0,0,0,0,0,0,0,0,0,0,0,0,0,0,0,0,0,0,0,0,0,0,0,0,0,0,0,0,0,0,0,0,0,0,0,0,0,0,0,0,0,0,0,0,0,0,0,0,0,0,0,0,0,0,0,0,0,0,0,0,0,0,0,0,0,0,0,0,0,0,0,0,0,0,0,0,0,0,0,0,0,0,0,0,0,0,0,0,0,0,0,0,0,0,0,0,0,0,0,0,0,0,0,0,0,0,0,0,0,0,0,0,0,0,0,0,0,0,0,0,0,0,0,0,0,0,0,0,0,0,0,0,0,0,0,0,0,0,0,0,0,0,0,0,0,0,0,0,0,0,0,0,0,0,0,0,0,0,0,0,0,0,0,0,0,0,0,0,0,0,0,0,0,0,0,0,0,0,0,0,0,0,0,0,0,0,0,0,0,0,0,0,0,0,0,0,0,0,0,0,0,0,0,0,0,0,0,0,0,0,0,0,0,0,0,0,0,0,0,0,0,0,0,0,0,0,0,0,0,0,0,0,0,0,0,0,0,0,0,0,0,0,0,0],"id":0,"left_children":[1,3,5,7,9,11,13,15,17,19,21,23,25,27,29,31,33,35,37,39,41,43,45,47,49,51,53,55,57,59,61,63,65,67,69,71,73,75,77,79,81,83,85,87,89,91,93,95,97,99,101,103,105,107,109,111,113,115,117,119,121,123,125,127,129,131,133,135,137,139,141,-1,143,145,147,149,151,153,155,157,159,161,163,165,167,169,171,173,175,177,179,181,183,185,187,189,191,193,195,197,199,201,203,205,207,209,211,213,215,217,219,221,223,225,227,229,231,233,235,-1,237,239,241,243,245,247,249,251,253,255,-1,257,259,-1,-1,261,263,265,-1,267,-1,-1,-1,269,271,273,275,277,279,281,283,285,287,289,291,293,295,297,299,301,303,305,307,309,311,313,315,-1,-1,317,319,321,-1,323,325,-1,327,-1,-1,329,-1,-1,331,333,-1,335,337,339,341,343,345,347,-1,349,351,-1,353,-1,355,357,-1,-1,-1,359,361,363,365,367,369,371,373,-1,-1,375,377,379,381,383,385,387,389,391,-1,-1,393,-1,-1,395,397,399,401,403,405,407,409,-1,-1,411,-1,413,415,417,419,421,423,425,427,429,431,433,-1,435,437,-1,439,-1,-1,441,443,-1,-1,445,447,449,-1,-1,451,453,455,457,459,461,463,465,467,469,471,473,475,-1,-1,477,479,481,483,485,487,489,491,493,495,497,499,501,503,505,507,509,511,513,515,517,519,-1,521,523,525,527,529,531,-1,533,-1,535,537,-1,-1,539,541,543,545,-1,547,549,551,553,555,557,559,-1,-1,561,563,565,567,569,571,573,575,577,579,-1,581,583,585,-1,587,589,591,593,595,597,599,-1,-1,601,603,605,607,609,611,613,-1,615,617,619,-1,621,623,625,627,629,631,633,635,637,639,641,643,645,-1,647,-1,649,651,653,655,657,659,661,663,665,-1,-1,-1,-1,667,-1,-1,669,671,673,675,677,679,681,683,685,687,689,691,693,695,697,699,701,703,705,707,709,711,713,715,717,719,721,723,725,727,729,731,-1,-1,733,735,737,739,741,743,745,747,-1,-1,749,-1,751,-1,753,755,757,-1,759,-1,-1,761,-1,-1,763,-1,765,767,-1,-1,769,771,-1,773,775,777,-1,-1,779,-1,781,-1,783,785,787,789,791,793,-1,795,797,799,801,803,805,807,809,811,813,815,817,819,-1,-1,-1,821,823,825,827,829,831,833,835,-1,837,839,841,843,845,847,849,851,853,-1,-1,-1,855,857,-1,-1,-1,-1,859,-1,861,863,865,867,-1,-1,-1,-1,869,-1,871,873,875,877,879,-1,881,883,885,887,-1,-1,889,891,893,895,897,899,901,903,905,-1,907,909,911,-1,913,915,-1,-1,917,-1,919,921,923,925,927,-1,929,931,933,-1,935,937,939,-1,941,943,945,947,949,951,953,955,957,959,961,963,965,-1,-1,-1,967,969,971,973,975,977,979,981,983,-1,985,987,989,991,993,-1,995,997,-1,999,-1,1001,1003,1005,1007,1009,-1,-1,-1,-1,1011,1013,1015,-1,1017,1019,1021,1023,1025,1027,1029,1031,1033,1035,1037,1039,1041,1043,-1,-1,1045,1047,1049,1051,1053,1055,1057,1059,1061,1063,1065,1067,1069,-1,-1,1071,1073,1075,-1,-1,1077,1079,1081,1083,1085,1087,1089,1091,-1,1093,1095,1097,1099,-1,-1,1101,1103,1105,1107,1109,1111,-1,1113,1115,-1,-1,1117,1119,1121,1123,1125,1127,1129,1131,1133,1135,1137,1139,1141,-1,1143,1145,1147,1149,1151,-1,-1,1153,-1,1155,1157,1159,1161,1163,1165,1167,1169,1171,1173,1175,1177,1179,1181,-1,-1,1183,1185,-1,-1,-1,-1,-1,-1,-1,-1,-1,-1,-1,-1,-1,-1,-1,-1,-1,-1,-1,-1,-1,-1,-1,-1,-1,-1,-1,-1,-1,-1,-1,-1,-1,-1,-1,-1,-1,-1,-1,-1,-1,-1,-1,-1,-1,-1,-1,-1,-1,-1,-1,-1,-1,-1,-1,-1,-1,-1,-1,-1,-1,-1,-1,-1,-1,-1,-1,-1,-1,-1,-1,-1,-1,-1,-1,-1,-1,-1,-1,-1,-1,-1,-1,-1,-1,-1,-1,-1,-1,-1,-1,-1,-1,-1,-1,-1,-1,-1,-1,-1,-1,-1,-1,-1,-1,-1,-1,-1,-1,-1,-1,-1,-1,-1,-1,-1,-1,-1,-1,-1,-1,-1,-1,-1,-1,-1,-1,-1,-1,-1,-1,-1,-1,-1,-1,-1,-1,-1,-1,-1,-1,-1,-1,-1,-1,-1,-1,-1,-1,-1,-1,-1,-1,-1,-1,-1,-1,-1,-1,-1,-1,-1,-1,-1,-1,-1,-1,-1,-1,-1,-1,-1,-1,-1,-1,-1,-1,-1,-1,-1,-1,-1,-1,-1,-1,-1,-1,-1,-1,-1,-1,-1,-1,-1,-1,-1,-1,-1,-1,-1,-1,-1,-1,-1,-1,-1,-1,-1,-1,-1,-1,-1,-1,-1,-1,-1,-1,-1,-1,-1,-1,-1,-1,-1,-1,-1,-1,-1,-1,-1,-1,-1,-1,-1,-1,-1,-1,-1,-1,-1,-1,-1,-1,-1,-1,-1,-1,-1,-1,-1,-1,-1,-1,-1,-1,-1,-1,-1,-1,-1,-1,-1,-1,-1,-1,-1,-1,-1,-1,-1,-1,-1,-1,-1,-1,-1,-1,-1,-1,-1,-1,-1,-1,-1,-1,-1,-1,-1,-1,-1,-1,-1,-1,-1,-1,-1,-1,-1,-1,-1,-1,-1,-1,-1,-1,-1,-1,-1,-1,-1,-1,-1,-1,-1,-1,-1,-1,-1,-1,-1,-1,-1,-1,-1,-1,-1,-1,-1,-1,-1,-1,-1,-1,-1,-1,-1,-1,-1,-1,-1,-1,-1,-1,-1,-1,-1,-1,-1,-1,-1,-1,-1,-1,-1,-1,-1,-1,-1,-1,-1,-1,-1,-1,-1,-1,-1,-1,-1,-1,-1,-1,-1,-1,-1,-1,-1,-1,-1,-1,-1,-1,-1,-1,-1,-1,-1,-1,-1,-1,-1,-1,-1,-1,-1,-1,-1,-1,-1,-1,-1,-1,-1,-1,-1,-1,-1,-1,-1,-1,-1,-1,-1,-1,-1,-1,-1,-1,-1,-1,-1,-1,-1,-1,-1,-1,-1,-1,-1,-1,-1,-1,-1,-1,-1,-1,-1,-1,-1,-1,-1,-1,-1,-1,-1,-1,-1,-1,-1,-1,-1,-1],"loss_changes":[8.7725234E4,1.4596621E4,8.1353594E3,3.8099734E3,2.848748E3,2.6938977E4,4.2975312E3,2.226309E3,4.4380767E3,7.601624E3,8.9961523E2,6.830859E1,4.4388716E3,1.6575E2,4.8417734E3,1.4253491E2,7.6521265E2,6.28291E1,4.5504155E3,1.955853E3,6.1047363E1,1.1344824E2,5.7741973E3,1.1785156E1,1.205293E2,4.006023E2,3.5859392E3,1.3711829E2,2.159375E1,2.4383481E3,1.5871172E3,3.2160645E1,3.249202E1,4.7454105E2,4.1470886E1,3.999414E1,7.2817383E0,5.611449E2,2.5694116E3,1.6645428E3,1.164834E2,2.5230774E1,3.0990723E1,2.650586E1,4.8649796E1,9.437146E1,1.3471191E2,1.4501953E1,8.300781E-1,5.3636475E1,5.2222656E1,1.408587E2,6.603003E1,8.571201E2,1.7608007E3,1.1829382E2,1.24138084E2,2.16875E1,6.741465E2,3.7771674E2,1.4561504E3,8.6860156E2,2.0140521E3,1.6408691E1,7.2612915E0,7.9431305E0,7.561062E0,4.5685358E2,2.2691666E1,1.2837616E1,1.1378237E1,0E0,2.2513916E1,3.465332E0,1.2380371E0,4.663186E2,3.92485E2,3.2981934E1,8.658462E2,1.557241E3,2.8569763E1,2.9215332E1,2.3758896E1,1.7821472E1,1.7768108E1,2.9523926E1,1.5415672E1,1.6113281E1,8.476196E0,9.095231E0,5.0046387E0,4.6590393E1,4.360901E0,7.13916E1,3.69205E1,1.5224609E0,7.4613525E1,2.96875E-1,1.2490845E-1,3.8094116E1,2.1826172E0,4.355297E-1,1.0015625E1,1.0640553E2,9.136908E1,3.6768677E1,2.704327E0,6.3335693E2,5.41438E1,8.596655E1,5.9840314E2,6.9990234E0,6.3492638E1,8.210907E-1,5.4468708E1,1.328125E0,2.8197266E1,2.5234375E0,2.3384705E0,0E0,1.9680176E0,3.22208E2,4.5305212E2,6.0964844E1,9.744082E2,1.3902069E2,1.11177E2,1.7833496E1,7.182724E0,8.902914E0,0E0,3.328019E1,4.3109818E0,0E0,0E0,1.6119812E2,4.0022903E1,7.860306E0,0E0,5.513672E0,0E0,0E0,0E0,7.9346313E0,6.4418945E0,2.5615234E0,9.987793E-1,8.317871E-1,6.218109E-1,8.016272E1,5.2132233E1,1.6767943E3,9.9461566E2,4.10791E0,3.2819214E1,2.10469E3,1.6999E2,5.6952515E2,2.2277728E2,5.534964E1,1.9975739E0,5.1882477E0,1.4160645E1,2.5977188E1,1.0643036E1,3.7622437E1,1.9226074E-1,0E0,0E0,4.423584E0,1.3823486E1,1.3845596E0,0E0,5.9281006E0,1.9433594E1,0E0,2.4119873E1,0E0,0E0,7.671097E0,0E0,0E0,1.5425647E2,1.4005066E1,0E0,3.8583984E1,6.534088E1,8.117084E1,1.6472778E0,4.0341797E0,1.3638916E0,2.6537598E1,0E0,1.09375E-1,2.9370117E-1,0E0,1.5927124E-1,0E0,2.8739136E1,3.1800537E0,0E0,0E0,0E0,9.744141E0,4.008789E-1,2.2600073E2,3.1001904E1,2.8142322E2,1.027095E2,8.335815E0,1.5670593E1,0E0,0E0,2.0602051E2,1.9231693E2,1.2159247E2,6.660056E1,6.2522107E2,3.9764343E1,6.241884E2,1.6510748E2,2.0275879E-1,0E0,0E0,2.2612907E1,0E0,0E0,2.4037897E1,1.2860199E1,9.7265625E0,3.0429688E0,5.9856934E1,2.0019531E-2,7.1816406E0,2.9368896E0,0E0,0E0,9.646973E0,0E0,2.713296E2,3.9086914E2,1.6873956E2,1.5446278E2,4.6933594E1,2.2471338E2,1.6640957E3,8.977539E0,4.2089532E2,4.168701E-2,6.640283E1,0E0,2.8918457E0,1.8129272E1,0E0,6.366852E0,0E0,0E0,7.206497E-1,4.091465E0,0E0,0E0,3.6981396E1,7.62688E1,1.1674408E1,0E0,0E0,7.4713974E0,1.3662415E0,2.4654083E0,2.5504684E0,3.0673218E0,6.0392E-1,3.1586914E0,5.6414795E-1,6.448303E0,1.0973358E0,7.203369E-1,5.736084E-1,9.887695E-2,0E0,0E0,6.2983032E1,2.8558418E1,1.34029045E1,6.865352E1,9.597412E0,1.7945767E2,1.2988403E1,4.5324097E1,1.4155273E0,5.3333282E0,4.5306396E-1,2.6046936E1,3.342169E1,2.3267869E3,2.101847E1,1.41824E2,1.5836865E3,2.4943115E1,3.1293176E2,1.6089603E1,6.1445956E0,2.4809906E1,0E0,9.928131E-1,2.8002243E0,6.1457367E0,2.697998E0,8.354492E0,7.900383E0,0E0,1.4307251E0,0E0,4.9582825E0,3.0779053E1,0E0,0E0,1.5144043E0,1.0380249E0,7.1279297E0,8.828552E0,0E0,1.7475281E0,4.2487183E0,2.2524414E0,7.633789E0,1.2294922E1,7.2216797E-1,8.213074E0,0E0,0E0,1.3889931E1,3.745099E1,5.445019E0,3.2442932E0,8.566406E0,2.434082E1,1.2848789E1,6.169464E0,5.5289E0,1.1118507E1,0E0,5.9176636E-1,1.5292969E0,1.3740234E0,0E0,2.58667E-1,3.1420898E-1,5.506714E0,1.3085938E-1,1.2207031E-2,4.1030884E-2,1.1230469E-1,0E0,0E0,7.9901123E0,3.8887787E0,1.043457E0,2.1416016E0,2.8017578E0,1.1617676E1,6.669922E-1,0E0,1.3514832E2,5.815057E1,2.7150879E1,0E0,4.9920654E0,1.0561235E2,9.705479E0,1.6403954E1,5.5095215E0,2.3125E0,1.6882683E1,7.2489624E0,1.2855469E1,5.564795E1,1.7536377E1,8.155847E1,7.9926147E0,0E0,7.6759834E0,0E0,7.367866E2,1.8685303E1,1.5676523E2,6.980957E0,3.3137463E2,4.524817E1,3.2947693E0,2.7750904E1,7.0166016E-1,0E0,0E0,0E0,0E0,1.0478289E1,0E0,0E0,4.453125E-1,2.1420898E0,1.390625E0,7.3760986E-1,6.65625E0,2.7871094E0,2.4414062E-3,8.300781E-2,1.2373047E0,2.2098389E0,3.8294067E0,8.8500977E-1,1.4928513E0,1.5113525E0,6.2296387E1,2.8721484E2,6.808215E1,2.312411E2,1.0949985E2,2.6208185E2,1.0688552E2,1.19909454E2,1.6711548E1,2.9144531E1,8.055176E0,1.9710889E2,1.1762617E3,6.4883093E2,1.8961914E1,8.7890625E-3,4.65849E1,3.5856018E0,0E0,0E0,7.868799E1,1.4693866E2,2.6655273E0,1.2011108E0,4.21698E0,5.7945557E0,2.2161484E0,3.9975662E0,0E0,0E0,9.058235E0,0E0,6.8483124E0,0E0,1.9223312E1,4.2060425E1,5.594696E0,0E0,5.5290565E0,0E0,0E0,1.1012268E0,0E0,0E0,1.8210602E-1,0E0,3.6107178E0,1.2246552E0,0E0,0E0,1.7426758E0,3.390274E0,0E0,3.3764648E-1,1.3943558E0,1.0557556E-1,0E0,0E0,5.2282715E-1,0E0,3.223877E-1,0E0,1.5551758E-1,8.215332E-2,2.9132381E1,1.8336548E1,1.0900994E1,1.8165863E1,0E0,8.293577E0,4.3061424E1,5.982643E0,3.075586E1,6.714783E-1,5.110846E1,3.0165422E1,1.2874771E1,2.1988213E1,3.758716E1,2.0908672E1,3.3518066E0,1.3681641E0,0E0,0E0,0E0,7.612915E-1,9.017578E0,1.1325684E1,4.219992E1,3.0709778E1,1.2123535E1,1.0576892E2,3.3852768E0,0E0,1.8323181E1,1.1799604E2,2.7416504E1,1.080018E2,3.2410736E0,1.0334473E1,4.1866844E1,5.0808105E0,2.9635677E0,0E0,0E0,0E0,1.5479675E1,6.0700073E0,0E0,0E0,0E0,0E0,2.9038315E0,0E0,3.4578247E0,2.0527344E0,4.3476562E0,3.2634888E0,0E0,0E0,0E0,0E0,2.0422546E1,0E0,1.5411911E0,1.9931562E1,1.3859253E0,2.703247E-1,7.9286194E-1,0E0,3.7509155E0,7.467499E-1,2.12146E0,5.468445E0,0E0,0E0,1.000679E0,5.6155396E-1,1.4903564E0,4.6588135E-1,8.010254E0,4.940674E0,9.512192E0,2.1305847E0,8.480835E-1,0E0,1.0784302E1,1.9121857E0,1.6899887E1,0E0,1.2476807E1,2.2108734E1,0E0,0E0,2.758789E0,0E0,6.374512E-1,3.3417969E0,9.606934E0,1.6938812E1,3.9528885E0,0E0,5.789978E0,2.8309708E0,3.230835E0,0E0,2.0489822E1,3.0211477E0,1.1486053E0,0E0,2.6141357E-1,9.189453E-1,2.4230957E-1,2.4262695E0,1.4511108E-1,2.5460815E-1,4.6142578E-2,6.227112E-1,1.2554932E0,2.5106812E0,1.0546875E-1,2.0996094E-1,5.8044434E-2,0E0,0E0,0E0,8.734131E-2,3.505249E-1,1.407074E1,4.5091553E0,8.347046E0,3.2655716E0,1.892273E0,1.0003052E0,1.729248E0,0E0,1.6474609E0,2.4804688E-1,2.1821823E0,2.7126465E0,4.140625E-1,0E0,4.0602806E1,9.496399E0,0E0,1.0071163E1,0E0,2.5789167E1,5.288269E0,2.4098083E1,2.8520874E1,4.536371E1,0E0,0E0,0E0,0E0,9.6469116E-1,5.044525E0,1.382904E0,0E0,7.5552444E0,5.2673187E0,5.8945923E0,4.131012E-1,4.6833496E0,1.921289E1,8.250757E1,5.0840332E1,4.8748474E0,1.27280655E1,5.743275E1,1.1704056E1,9.8014145E0,3.1079102E-1,0E0,0E0,3.6193542E1,7.275737E1,1.1337662E0,1.8331299E0,4.8215637E0,2.9560055E1,2.035797E0,3.2078323E0,5.9019775E0,2.661354E1,2.928955E0,4.2123108E1,9.4947815E-1,0E0,0E0,4.1841407E0,2.1081543E-1,6.799927E-1,0E0,0E0,1.5625E-1,1.171875E-1,8.730469E-1,1.7906799E0,8.7402344E-1,4.8828125E-2,7.8948975E-2,3.779297E-1,0E0,1.1340332E0,1.487915E0,2.0439453E0,7.2021484E-3,0E0,0E0,2.1972656E-2,7.421875E-1,2.8988037E0,1.5984497E0,3.430786E-1,7.0983887E-1,0E0,1.7852783E-2,7.006836E-1,0E0,0E0,5.456085E-1,1.2921143E-1,1.0591455E2,3.955713E1,3.625119E1,2.9408203E1,1.4172363E0,2.3227142E1,7.201796E1,1.64181E2,1.0080014E2,5.6497025E1,7.670807E1,0E0,3.0563679E1,1.5116913E1,4.7112427E1,2.3227362E1,2.0881653E0,0E0,0E0,2.065625E1,0E0,6.0058594E-2,1.2874756E1,3.7885443E2,1.8263306E2,5.2145508E1,4.7576398E2,1.8789655E2,1.7944336E0,1.9966144E2,4.0374756E-2,1.953125E-3,1.1773361E1,1.379657E1,2.5830078E-1,0E0,0E0,8.29187E0,5.9757996E0,0E0,0E0,0E0,0E0,0E0,0E0,0E0,0E0,0E0,0E0,0E0,0E0,0E0,0E0,0E0,0E0,0E0,0E0,0E0,0E0,0E0,0E0,0E0,0E0,0E0,0E0,0E0,0E0,0E0,0E0,0E0,0E0,0E0,0E0,0E0,0E0,0E0,0E0,0E0,0E0,0E0,0E0,0E0,0E0,0E0,0E0,0E0,0E0,0E0,0E0,0E0,0E0,0E0,0E0,0E0,0E0,0E0,0E0,0E0,0E0,0E0,0E0,0E0,0E0,0E0,0E0,0E0,0E0,0E0,0E0,0E0,0E0,0E0,0E0,0E0,0E0,0E0,0E0,0E0,0E0,0E0,0E0,0E0,0E0,0E0,0E0,0E0,0E0,0E0,0E0,0E0,0E0,0E0,0E0,0E0,0E0,0E0,0E0,0E0,0E0,0E0,0E0,0E0,0E0,0E0,0E0,0E0,0E0,0E0,0E0,0E0,0E0,0E0,0E0,0E0,0E0,0E0,0E0,0E0,0E0,0E0,0E0,0E0,0E0,0E0,0E0,0E0,0E0,0E0,0E0,0E0,0E0,0E0,0E0,0E0,0E0,0E0,0E0,0E0,0E0,0E0,0E0,0E0,0E0,0E0,0E0,0E0,0E0,0E0,0E0,0E0,0E0,0E0,0E0,0E0,0E0,0E0,0E0,0E0,0E0,0E0,0E0,0E0,0E0,0E0,0E0,0E0,0E0,0E0,0E0,0E0,0E0,0E0,0E0,0E0,0E0,0E0,0E0,0E0,0E0,0E0,0E0,0E0,0E0,0E0,0E0,0E0,0E0,0E0,0E0,0E0,0E0,0E0,0E0,0E0,0E0,0E0,0E0,0E0,0E0,0E0,0E0,0E0,0E0,0E0,0E0,0E0,0E0,0E0,0E0,0E0,0E0,0E0,0E0,0E0,0E0,0E0,0E0,0E0,0E0,0E0,0E0,0E0,0E0,0E0,0E0,0E0,0E0,0E0,0E0,0E0,0E0,0E0,0E0,0E0,0E0,0E0,0E0,0E0,0E0,0E0,0E0,0E0,0E0,0E0,0E0,0E0,0E0,0E0,0E0,0E0,0E0,0E0,0E0,0E0,0E0,0E0,0E0,0E0,0E0,0E0,0E0,0E0,0E0,0E0,0E0,0E0,0E0,0E0,0E0,0E0,0E0,0E0,0E0,0E0,0E0,0E0,0E0,0E0,0E0,0E0,0E0,0E0,0E0,0E0,0E0,0E0,0E0,0E0,0E0,0E0,0E0,0E0,0E0,0E0,0E0,0E0,0E0,0E0,0E0,0E0,0E0,0E0,0E0,0E0,0E0,0E0,0E0,0E0,0E0,0E0,0E0,0E0,0E0,0E0,0E0,0E0,0E0,0E0,0E0,0E0,0E0,0E0,0E0,0E0,0E0,0E0,0E0,0E0,0E0,0E0,0E0,0E0,0E0,0E0,0E0,0E0,0E0,0E0,0E0,0E0,0E0,0E0,0E0,0E0,0E0,0E0,0E0,0E0,0E0,0E0,0E0,0E0,0E0,0E0,0E0,0E0,0E0,0E0,0E0,0E0,0E0,0E0,0E0,0E0,0E0,0E0,0E0,0E0,0E0,0E0,0E0,0E0,0E0,0E0,0E0,0E0,0E0,0E0,0E0,0E0,0E0,0E0,0E0,0E0,0E0,0E0,0E0,0E0,0E0,0E0,0E0,0E0,0E0,0E0,0E0,0E0,0E0,0E0,0E0,0E0,0E0,0E0,0E0,0E0,0E0,0E0,0E0,0E0,0E0,0E0,0E0,0E0,0E0,0E0,0E0,0E0,0E0,0E0,0E0,0E0,0E0,0E0,0E0,0E0,0E0,0E0,0E0,0E0,0E0,0E0,0E0,0E0,0E0,0E0,0E0,0E0,0E0,0E0,0E0,0E0,0E0,0E0,0E0,0E0,0E0,0E0,0E0,0E0,0E0,0E0],"parents":[2147483647,0,0,1,1,2,2,3,3,4,4,5,5,6,6,7,7,8,8,9,9,10,10,11,11,12,12,13,13,14,14,15,15,16,16,17,17,18,18,19,19,20,20,21,21,22,22,23,23,24,24,25,25,26,26,27,27,28,28,29,29,30,30,31,31,32,32,33,33,34,34,35,35,36,36,37,37,38,38,39,39,40,40,41,41,42,42,43,43,44,44,45,45,46,46,47,47,48,48,49,49,50,50,51,51,52,52,53,53,54,54,55,55,56,56,57,57,58,58,59,59,60,60,61,61,62,62,63,63,64,64,65,65,66,66,67,67,68,68,69,69,70,70,72,72,73,73,74,74,75,75,76,76,77,77,78,78,79,79,80,80,81,81,82,82,83,83,84,84,85,85,86,86,87,87,88,88,89,89,90,90,91,91,92,92,93,93,94,94,95,95,96,96,97,97,98,98,99,99,100,100,101,101,102,102,103,103,104,104,105,105,106,106,107,107,108,108,109,109,110,110,111,111,112,112,113,113,114,114,115,115,116,116,117,117,118,118,120,120,121,121,122,122,123,123,124,124,125,125,126,126,127,127,128,128,129,129,131,131,132,132,135,135,136,136,137,137,139,139,143,143,144,144,145,145,146,146,147,147,148,148,149,149,150,150,151,151,152,152,153,153,154,154,155,155,156,156,157,157,158,158,159,159,160,160,161,161,162,162,163,163,164,164,165,165,166,166,169,169,170,170,171,171,173,173,174,174,176,176,179,179,182,182,183,183,185,185,186,186,187,187,188,188,189,189,190,190,191,191,193,193,194,194,196,196,198,198,199,199,203,203,204,204,205,205,206,206,207,207,208,208,209,209,210,210,213,213,214,214,215,215,216,216,217,217,218,218,219,219,220,220,221,221,224,224,227,227,228,228,229,229,230,230,231,231,232,232,233,233,234,234,237,237,239,239,240,240,241,241,242,242,243,243,244,244,245,245,246,246,247,247,248,248,249,249,251,251,252,252,254,254,257,257,258,258,261,261,262,262,263,263,266,266,267,267,268,268,269,269,270,270,271,271,272,272,273,273,274,274,275,275,276,276,277,277,278,278,281,281,282,282,283,283,284,284,285,285,286,286,287,287,288,288,289,289,290,290,291,291,292,292,293,293,294,294,295,295,296,296,297,297,298,298,299,299,300,300,301,301,302,302,304,304,305,305,306,306,307,307,308,308,309,309,311,311,313,313,314,314,317,317,318,318,319,319,320,320,322,322,323,323,324,324,325,325,326,326,327,327,328,328,331,331,332,332,333,333,334,334,335,335,336,336,337,337,338,338,339,339,340,340,342,342,343,343,344,344,346,346,347,347,348,348,349,349,350,350,351,351,352,352,355,355,356,356,357,357,358,358,359,359,360,360,361,361,363,363,364,364,365,365,367,367,368,368,369,369,370,370,371,371,372,372,373,373,374,374,375,375,376,376,377,377,378,378,379,379,381,381,383,383,384,384,385,385,386,386,387,387,388,388,389,389,390,390,391,391,396,396,399,399,400,400,401,401,402,402,403,403,404,404,405,405,406,406,407,407,408,408,409,409,410,410,411,411,412,412,413,413,414,414,415,415,416,416,417,417,418,418,419,419,420,420,421,421,422,422,423,423,424,424,425,425,426,426,427,427,428,428,429,429,430,430,433,433,434,434,435,435,436,436,437,437,438,438,439,439,440,440,443,443,445,445,447,447,448,448,449,449,451,451,454,454,457,457,459,459,460,460,463,463,464,464,466,466,467,467,468,468,471,471,473,473,475,475,476,476,477,477,478,478,479,479,480,480,482,482,483,483,484,484,485,485,486,486,487,487,488,488,489,489,490,490,491,491,492,492,493,493,494,494,498,498,499,499,500,500,501,501,502,502,503,503,504,504,505,505,507,507,508,508,509,509,510,510,511,511,512,512,513,513,514,514,515,515,519,519,520,520,525,525,527,527,528,528,529,529,530,530,535,535,537,537,538,538,539,539,540,540,541,541,543,543,544,544,545,545,546,546,549,549,550,550,551,551,552,552,553,553,554,554,555,555,556,556,557,557,559,559,560,560,561,561,563,563,564,564,567,567,569,569,570,570,571,571,572,572,573,573,575,575,576,576,577,577,579,579,580,580,581,581,583,583,584,584,585,585,586,586,587,587,588,588,589,589,590,590,591,591,592,592,593,593,594,594,595,595,599,599,600,600,601,601,602,602,603,603,604,604,605,605,606,606,607,607,609,609,610,610,611,611,612,612,613,613,615,615,616,616,618,618,620,620,621,621,622,622,623,623,624,624,629,629,630,630,631,631,633,633,634,634,635,635,636,636,637,637,638,638,639,639,640,640,641,641,642,642,643,643,644,644,645,645,646,646,649,649,650,650,651,651,652,652,653,653,654,654,655,655,656,656,657,657,658,658,659,659,660,660,661,661,664,664,665,665,666,666,669,669,670,670,671,671,672,672,673,673,674,674,675,675,676,676,678,678,679,679,680,680,681,681,684,684,685,685,686,686,687,687,688,688,689,689,691,691,692,692,695,695,696,696,697,697,698,698,699,699,700,700,701,701,702,702,703,703,704,704,705,705,706,706,707,707,709,709,710,710,711,711,712,712,713,713,716,716,718,718,719,719,720,720,721,721,722,722,723,723,724,724,725,725,726,726,727,727,728,728,729,729,730,730,731,731,734,734,735,735],"right_children":[2,4,6,8,10,12,14,16,18,20,22,24,26,28,30,32,34,36,38,40,42,44,46,48,50,52,54,56,58,60,62,64,66,68,70,72,74,76,78,80,82,84,86,88,90,92,94,96,98,100,102,104,106,108,110,112,114,116,118,120,122,124,126,128,130,132,134,136,138,140,142,-1,144,146,148,150,152,154,156,158,160,162,164,166,168,170,172,174,176,178,180,182,184,186,188,190,192,194,196,198,200,202,204,206,208,210,212,214,216,218,220,222,224,226,228,230,232,234,236,-1,238,240,242,244,246,248,250,252,254,256,-1,258,260,-1,-1,262,264,266,-1,268,-1,-1,-1,270,272,274,276,278,280,282,284,286,288,290,292,294,296,298,300,302,304,306,308,310,312,314,316,-1,-1,318,320,322,-1,324,326,-1,328,-1,-1,330,-1,-1,332,334,-1,336,338,340,342,344,346,348,-1,350,352,-1,354,-1,356,358,-1,-1,-1,360,362,364,366,368,370,372,374,-1,-1,376,378,380,382,384,386,388,390,392,-1,-1,394,-1,-1,396,398,400,402,404,406,408,410,-1,-1,412,-1,414,416,418,420,422,424,426,428,430,432,434,-1,436,438,-1,440,-1,-1,442,444,-1,-1,446,448,450,-1,-1,452,454,456,458,460,462,464,466,468,470,472,474,476,-1,-1,478,480,482,484,486,488,490,492,494,496,498,500,502,504,506,508,510,512,514,516,518,520,-1,522,524,526,528,530,532,-1,534,-1,536,538,-1,-1,540,542,544,546,-1,548,550,552,554,556,558,560,-1,-1,562,564,566,568,570,572,574,576,578,580,-1,582,584,586,-1,588,590,592,594,596,598,600,-1,-1,602,604,606,608,610,612,614,-1,616,618,620,-1,622,624,626,628,630,632,634,636,638,640,642,644,646,-1,648,-1,650,652,654,656,658,660,662,664,666,-1,-1,-1,-1,668,-1,-1,670,672,674,676,678,680,682,684,686,688,690,692,694,696,698,700,702,704,706,708,710,712,714,716,718,720,722,724,726,728,730,732,-1,-1,734,736,738,740,742,744,746,748,-1,-1,750,-1,752,-1,754,756,758,-1,760,-1,-1,762,-1,-1,764,-1,766,768,-1,-1,770,772,-1,774,776,778,-1,-1,780,-1,782,-1,784,786,788,790,792,794,-1,796,798,800,802,804,806,808,810,812,814,816,818,820,-1,-1,-1,822,824,826,828,830,832,834,836,-1,838,840,842,844,846,848,850,852,854,-1,-1,-1,856,858,-1,-1,-1,-1,860,-1,862,864,866,868,-1,-1,-1,-1,870,-1,872,874,876,878,880,-1,882,884,886,888,-1,-1,890,892,894,896,898,900,902,904,906,-1,908,910,912,-1,914,916,-1,-1,918,-1,920,922,924,926,928,-1,930,932,934,-1,936,938,940,-1,942,944,946,948,950,952,954,956,958,960,962,964,966,-1,-1,-1,968,970,972,974,976,978,980,982,984,-1,986,988,990,992,994,-1,996,998,-1,1000,-1,1002,1004,1006,1008,1010,-1,-1,-1,-1,1012,1014,1016,-1,1018,1020,1022,1024,1026,1028,1030,1032,1034,1036,1038,1040,1042,1044,-1,-1,1046,1048,1050,1052,1054,1056,1058,1060,1062,1064,1066,1068,1070,-1,-1,1072,1074,1076,-1,-1,1078,1080,1082,1084,1086,1088,1090,1092,-1,1094,1096,1098,1100,-1,-1,1102,1104,1106,1108,1110,1112,-1,1114,1116,-1,-1,1118,1120,1122,1124,1126,1128,1130,1132,1134,1136,1138,1140,1142,-1,1144,1146,1148,1150,1152,-1,-1,1154,-1,1156,1158,1160,1162,1164,1166,1168,1170,1172,1174,1176,1178,1180,1182,-1,-1,1184,1186,-1,-1,-1,-1,-1,-1,-1,-1,-1,-1,-1,-1,-1,-1,-1,-1,-1,-1,-1,-1,-1,-1,-1,-1,-1,-1,-1,-1,-1,-1,-1,-1,-1,-1,-1,-1,-1,-1,-1,-1,-1,-1,-1,-1,-1,-1,-1,-1,-1,-1,-1,-1,-1,-1,-1,-1,-1,-1,-1,-1,-1,-1,-1,-1,-1,-1,-1,-1,-1,-1,-1,-1,-1,-1,-1,-1,-1,-1,-1,-1,-1,-1,-1,-1,-1,-1,-1,-1,-1,-1,-1,-1,-1,-1,-1,-1,-1,-1,-1,-1,-1,-1,-1,-1,-1,-1,-1,-1,-1,-1,-1,-1,-1,-1,-1,-1,-1,-1,-1,-1,-1,-1,-1,-1,-1,-1,-1,-1,-1,-1,-1,-1,-1,-1,-1,-1,-1,-1,-1,-1,-1,-1,-1,-1,-1,-1,-1,-1,-1,-1,-1,-1,-1,-1,-1,-1,-1,-1,-1,-1,-1,-1,-1,-1,-1,-1,-1,-1,-1,-1,-1,-1,-1,-1,-1,-1,-1,-1,-1,-1,-1,-1,-1,-1,-1,-1,-1,-1,-1,-1,-1,-1,-1,-1,-1,-1,-1,-1,-1,-1,-1,-1,-1,-1,-1,-1,-1,-1,-1,-1,-1,-1,-1,-1,-1,-1,-1,-1,-1,-1,-1,-1,-1,-1,-1,-1,-1,-1,-1,-1,-1,-1,-1,-1,-1,-1,-1,-1,-1,-1,-1,-1,-1,-1,-1,-1,-1,-1,-1,-1,-1,-1,-1,-1,-1,-1,-1,-1,-1,-1,-1,-1,-1,-1,-1,-1,-1,-1,-1,-1,-1,-1,-1,-1,-1,-1,-1,-1,-1,-1,-1,-1,-1,-1,-1,-1,-1,-1,-1,-1,-1,-1,-1,-1,-1,-1,-1,-1,-1,-1,-1,-1,-1,-1,-1,-1,-1,-1,-1,-1,-1,-1,-1,-1,-1,-1,-1,-1,-1,-1,-1,-1,-1,-1,-1,-1,-1,-1,-1,-1,-1,-1,-1,-1,-1,-1,-1,-1,-1,-1,-1,-1,-1,-1,-1,-1,-1,-1,-1,-1,-1,-1,-1,-1,-1,-1,-1,-1,-1,-1,-1,-1,-1,-1,-1,-1,-1,-1,-1,-1,-1,-1,-1,-1,-1,-1,-1,-1,-1,-1,-1,-1,-1,-1,-1,-1,-1,-1,-1,-1,-1,-1,-1,-1,-1,-1,-1,-1,-1,-1,-1,-1,-1,-1,-1,-1,-1,-1,-1,-1,-1,-1,-1,-1,-1,-1,-1,-1,-1,-1,-1,-1,-1,-1,-1,-1,-1,-1,-1,-1,-1,-1,-1,-1,-1,-1,-1,-1,-1,-1,-1,-1,-1,-1,-1,-1,-1,-1,-1,-1,-1],"split_conditions":[5.95E1,5E-1,8.25E1,1.15E1,3.65E1,6.05E1,8.45E1,5.1E1,1.25E1,3.55E1,4.75E1,5E-1,5E-1,8.35E1,1.175E2,1.05E1,5E-1,7.22925E4,3.55E1,2.45E1,1.85E1,1.9975E5,4.85E1,5E-1,1.05E1,5E-1,7.15E1,1.045E5,1.55847E5,1.275E4,2.405E2,1.025E5,1.005E5,5E-1,8.5000015E1,5.05E3,1.951E5,2.35E1,3.65E1,2.35E1,1.496E5,8.499941E1,5.875E1,5E-1,7.340056E1,5E-1,5.85E1,8.6668335E1,1.0535E5,5.225E4,5.05E3,7.15E1,1.023E5,5E-1,7.4999855E1,8.48506E1,6.05E1,8.999979E1,8.532512E1,8.25E1,2.0005E5,1.205E2,7.696154E1,5E-1,2.5E0,2.5E0,5E-1,5E-1,8.95E1,1.05E1,3.5E0,-6.2739044E-2,3.5E0,7.5E0,5E-1,1.48675E5,7.075515E1,5.475E4,1.009E5,1.498565E5,1.235E5,8.1E3,6.625E1,1.265E5,2.58E4,2.495E4,5E-1,1.78E4,9.75E3,9.5E0,5E-1,5.3E3,5E-1,1.4755E5,7.500006E1,4.265E5,1.505E5,9.49E4,5.5E0,8.45E3,3.5985E5,1.5E0,5E-1,5E-1,5E-1,5.245E4,1.296E5,5.005E4,1.021E5,5.48E4,5E-1,7.25E1,2.875E4,1.05E1,7.5000015E1,8.1115E1,5E-1,3.5E0,2.745E5,-6.3379234E-1,5E-1,5E-1,5E-1,8.506734E1,5E-1,5E-1,9.000005E1,3.55E1,9.5E0,5.5E0,4.814396E-1,1.05E1,2.05E1,-9.5128454E-2,1.6211212E-1,2.5E0,6.5E0,2.5E0,9.307441E-2,9.17E4,2.5592113E-1,2.7307516E-1,-6.3435175E-2,9.5E0,4.5E0,7.750025E1,5.5E0,4.8965E5,2.15E1,8.5E0,5.25E1,2.45E1,2.45E1,5E-1,7.2E1,4.75E1,7.0650055E1,1.35E1,1.35E1,5.5E0,1.45E1,6.75E1,9.5E0,2.445E5,3.7815E5,8.5E0,2.0215E5,6.2226888E-2,-3.451382E-1,3.95E1,3.25E1,3.15E4,-1.5696873E-1,5.5E0,1.038E5,3.0854166E-1,1.45E1,1.9621089E-1,-6.806066E-2,4.25E1,5.778211E-1,1.4737947E-1,1.45E1,1.45E1,-6.574916E-1,1.45E1,7.499984E1,1.45E1,6E0,5E-1,9.5E0,5E-1,3.6299016E-2,8.5999886E1,9.845E4,-6.7118937E-1,1.95E1,-8.746751E-3,8.5E0,8.5E0,-5.312051E-1,-3.2860163E-1,-2.5812635E-1,4.15E1,1.95E1,6.65E1,8.25E1,7.25E1,6.400228E1,8.55E1,1.85E1,-0E0,-1.7015164E-1,1.45E1,1.05E1,6.65E1,6.65E1,7.85E1,7.75E1,7.25E1,7.25E1,1.75E1,-5.1679957E-1,3.495461E-1,8.545E1,-6.2425065E-1,-7.029334E-1,1.05E1,1.51125E5,5E-1,5E-1,5E-1,6.28215E4,5E-1,2.5E0,4.355882E-1,5.770613E-1,9.05E1,5.7473445E-1,9.65E1,9.05E1,7.500011E1,9.05E1,1.195E2,5E-1,1.865E2,9.000013E1,2.985E2,2.9825E5,8.65E1,-7.2598034E-1,6.5E0,3.5E0,5.828293E-1,5.5E0,3.88024E-1,1.0711186E-1,1.55E1,7.8E4,5.315213E-1,3.2005584E-1,8.5000015E1,8.438E1,8.7E4,-0E0,6.273034E-1,8.4497826E1,1.05E4,5.5E0,4.8E4,5E-1,8.5E0,7.75035E1,1.5E0,8.500003E1,1.75E1,1.545E5,4.125E5,7.4999985E1,-6.9933885E-1,-6.285927E-1,1.35E1,1.55E1,1.35E1,5E-1,1.4215E5,9.53E4,5.325E4,8.964989E1,2.46E4,3.63E4,6.575E4,7.5E0,2.57525E4,4.85E1,5E-1,4.75E1,1.15E1,8.9E3,1.15E1,2.85E5,4.25E4,5E-1,-4.6037778E-1,7.5E0,3.05E1,3.25E1,1.015E4,5E-1,6.5E0,-4.4447776E-2,1.575E5,2.359436E-1,9.875E4,2.45E4,-6.370848E-1,-5.9277296E-1,5E-1,2.5E0,5E-1,4.5E0,-5.0886476E-1,5.5E0,5.15E3,2.5E0,4.55E1,6.25E1,9.35E4,5.15E4,2.870155E-1,5.4609144E-1,1.35E1,2.475E4,3.25E4,6.25E1,1.01E4,5E-1,2.495E5,3.509E5,5.19E4,6.625E4,6.72204E-1,4.45E4,1.105E4,7.92E4,-6.058934E-1,7.5000046E1,5E-1,6.95E4,5.0908E4,1.5E0,9.5035E4,8.49998E1,-6.734998E-1,-7.1445686E-1,5E-1,5E-1,1.0165E5,5E-1,5E-1,1.515E4,3.475E5,-7.2598034E-1,6.55E1,5.21145E1,2.985E4,5.120072E-1,8.699997E1,7.75E1,3.51E4,7.45E1,3.185E4,7.25E1,7.15E1,8.82E1,5E-1,8E1,8.5E0,6.65E1,6.55E1,2.8501448E-1,6.55E1,5.1855737E-1,7.25E1,7.95E1,7.25E1,5E-1,2.52E4,2.55E4,8.9E4,6.455E4,5E-1,-7.2598034E-1,-1.2906317E-1,-6.079347E-1,4.7808462E-1,3.04E5,-1.686621E-1,-5.4257476E-1,5.25E1,1.00575E5,5E-1,3.5E0,1.815E4,6.495E4,3.295E4,6.5125E4,6.155E5,8.445E1,3.0755E5,7.290747E1,7.75E3,9.65E1,9.55E1,1.075E2,7.499986E1,8.122125E1,9.65E1,8.500018E1,8.95E1,1.075E2,3.947E5,1.265E4,2.01E4,1.695E5,1.795E2,7.500007E1,8.625E1,1.5E0,7.499954E1,5.19E5,7.0783085E-1,7.2598034E-1,1.20325E5,1.73E5,2.95E1,1.5E0,1.875E4,1.5E0,5E-1,3.35E1,5.909142E-1,4.9579147E-1,3.75E1,3.5939623E-2,1.75E1,-3.0404305E-1,7.1149E4,1.0125E4,2.5E0,1.9477522E-1,5.15E4,5.225209E-1,4.631254E-1,5E-1,4.79421E-1,3.515754E-1,2.45E4,-4.982218E-1,1.5E0,3.45E1,-4.592937E-1,-5.423991E-1,1.95E1,1.05E1,-6.082538E-1,2.95E1,2.35E1,1.75E1,-6.7883873E-1,-5.84639E-1,3.05E1,-6.2226886E-1,4.5E0,-6.460559E-1,2.15E1,5E-1,2.25E1,9.5E0,3.795E4,9.965E4,-4.8184535E-1,2.15E1,4.968E5,2.69E5,1.05E1,1.525E5,1.05E1,1.4985E5,5E-1,5E-1,5E-1,5E-1,5E-1,3.35E1,-6.7758167E-1,-4.355882E-1,-6.352328E-1,5.5E0,1.113E5,5E-1,5E-1,9.5E0,5E-1,5.5E0,1.75E1,5.3493287E-2,6.61175E5,6.5E0,5E-1,5E-1,5E-1,1.15E1,3.2675E5,5E-1,1.15E1,-5.6636766E-2,1.0835527E-1,-1.2811418E-1,3.95E1,2.33E4,-5.411853E-1,-6.352328E-1,4.520255E-1,6.2226886E-1,1.5E0,2.4199346E-1,5.5E0,2.5E0,1.005E4,3.5E0,4.5183393E-1,2.0504788E-1,6.1973935E-1,5.011606E-1,5.5E0,-5.876984E-1,1.0508E4,9.5E0,1.5E0,2.5E0,1.445E4,-5.9910995E-1,1.95E1,2.95E1,4.55E1,3.65E1,-3.2999107E-1,-4.6670166E-1,1.5E0,3.5E0,5E-1,5E-1,1.05E1,1.45E1,7.5E0,4.25E1,4.5E0,5.8932525E-1,2.95E1,9.5E0,5.5E0,-3.1532478E-1,1.015E4,3.95E1,-4.410161E-1,-1.9944516E-1,2.75E1,-4.4595936E-1,1.5E0,5E-1,4.15E1,3.05E1,5E-1,5.1487964E-3,4.5E0,3.15E1,1.625E4,4.18631E-1,3.95E1,5.5E0,5E-1,5.128485E-1,3.35E1,5E-1,4.9868E4,1.05E1,5.2E1,5.2105E5,1.35E1,3.525E4,9.5E0,1.95E1,1.5E0,4.75E1,4.995E4,-7.2598034E-1,-6.9406915E-1,-6.715318E-1,9.5E0,2.35E1,5.5E0,4.5E0,9.5E0,2.675E4,9.88E4,2.275E5,1.0525E5,-6.7139536E-1,3.45E1,7.875E4,5E-1,9.5E0,2.25E1,-6.395541E-1,3.15E1,5E-1,-3.2150558E-1,2.25E1,3.5480243E-1,1.539E5,5E-1,5E-1,1.05E1,1.53975E5,-1.6883264E-1,-4.8042816E-1,1.12265E-1,5.087579E-1,1.85E1,5E-1,3.175E4,-5.559309E-1,7.74E4,4.5E0,5E-1,2.5E0,8.5E0,1.05E1,5E-1,2.525E4,3.5E0,8.5E0,1.45E1,7.5E0,5.25E4,2.55E1,-9.257467E-2,-3.6299017E-1,1.45E1,1.45E1,2.25E1,4.56E4,1.004E5,1.45E1,8.9E4,2.5E0,5E-1,1.05E1,1.75E1,1.05E1,4.675E4,-5.4218787E-1,-2.792232E-1,5.5E0,3.35E1,2.55E1,-1.3257033E-1,1.9515601E-1,2.145E4,1.45E1,1.05E1,3.25E1,1.05E1,4.75E1,2.55E1,6.55E4,-5.081862E-1,2.518E4,4.35E1,4.35E1,2.99625E4,-7.2598034E-1,-7.0609045E-1,5E-1,7.5E0,6.5E0,5E-1,3.05E1,6.5E0,-5.398315E-1,1.45E1,2.895E5,5.917655E-1,4.6785402E-1,1.5E0,4.25E1,1.35E1,5E-1,1.1015E5,2.01E4,1.4515E5,4.25E1,1.5025E5,5.035E4,1.05E1,4.024E5,5E-1,6.376001E-1,3.6865E5,1.35E1,1.35E1,2.5E0,5E-1,-3.1697735E-1,-3.1331784E-1,5E-1,-5.224345E-1,3.35E1,4.5E0,5E-1,6.19E5,5E-1,5E-1,5E-1,1.102E6,1.6375E5,1.195E5,3.45E1,1.1025E6,3.006E5,2.375E5,-4.4941643E-1,1.0999703E-1,1.1E1,1.0775E5,6.734998E-1,5.7566434E-1,6.19354E-1,5.053176E-1,5.848175E-1,4.537377E-1,5.829039E-1,3.173447E-1,5.044948E-1,4.249641E-1,5.6004196E-1,2.3867847E-1,4.1836154E-1,2.9978293E-1,5.4998513E-2,2.514371E-1,8.344602E-3,-4.911952E-1,-2.625607E-1,-6.98058E-2,-5.423991E-1,5.611289E-1,3.4112328E-1,1.9676103E-1,4.255747E-1,5.039158E-1,5.7658243E-1,-3.8113967E-1,-3.3506784E-1,-4.6854052E-1,-5.525246E-1,-6.405709E-1,-5.386306E-1,-6.4269805E-1,-7.054579E-1,-5.120072E-1,-6.5471846E-1,-6.6811234E-1,-6.405709E-1,-4.355882E-1,-5.528107E-1,-6.5600634E-1,-6.896813E-1,-7.070623E-1,-6.779989E-1,-7.2137094E-1,-6.9573116E-1,-7.2598034E-1,-6.8601817E-1,-7.2369015E-1,-7.050888E-1,3.8491574E-1,8.275423E-2,5.2515274E-1,4.2321724E-1,2.7114928E-1,-2.9039213E-2,3.566663E-1,1.18465416E-1,-1.1247583E-1,-3.8539696E-1,3.1235138E-2,-3.1113443E-1,4.3886948E-1,1.996446E-1,-3.5055125E-1,-5.970808E-1,-6.5572417E-1,-7.2598034E-1,5.4476494E-1,3.0108675E-1,6.501316E-2,-2.8742895E-1,-3.6983907E-1,-6.026111E-1,-4.188348E-1,-4.2704728E-2,3.6193436E-1,5.375796E-1,8.410748E-2,3.539477E-1,-7.1148837E-1,-6.426449E-1,-6.614286E-1,-6.91988E-1,-6.9573116E-1,-6.3009614E-1,-4.588196E-1,-2.7005064E-1,-6.2991077E-1,-3.7010765E-1,2.0624442E-2,3.6732867E-1,3.097329E-1,1.0911529E-1,-6.9531715E-1,-6.164623E-1,4.116049E-1,3.0430315E-2,-2.094174E-1,-3.5968024E-1,3.8408795E-1,3.4570493E-2,2.741865E-1,-6.850956E-2,6.034619E-1,4.213156E-1,-1.4326441E-1,-5.007515E-1,2.4199346E-1,4.3213114E-1,6.028879E-1,4.8917988E-1,2.989331E-1,-2.3771037E-1,-6.904842E-1,-5.5209285E-1,2.9576975E-1,1.3120127E-1,-3.5017875E-1,-1.3199642E-1,-6.1993825E-1,-4.4737533E-1,5.3493285E-1,3.5881785E-1,6.571374E-1,5.044948E-1,6.818397E-1,6.203832E-1,5.562048E-1,6.22925E-1,5.784549E-1,4.9982846E-1,-3.9843366E-1,-6.5410113E-1,-3.8434255E-1,-4.9911147E-1,1.2004399E-1,-2.3242848E-1,-6.338149E-1,-5.531279E-1,-6.6685075E-1,-7.1188366E-1,-5.534702E-1,-4.6056816E-1,-5.980298E-1,-4.950875E-1,-6.2961125E-1,-7.090971E-1,-3.853444E-1,-4.95295E-1,-4.2844743E-1,-5.658376E-1,5.9691715E-1,4.8924762E-1,6.836902E-1,6.26701E-1,5.96341E-1,5.508232E-1,5.424306E-1,5.0398636E-1,6.9030297E-1,6.4058906E-1,6.4956135E-1,5.7284385E-1,4.9366665E-1,1.9192584E-1,5.631436E-1,6.947554E-1,6.9272935E-1,6.4016706E-1,4.218824E-1,5.8078426E-1,4.3003932E-1,3.0613628E-1,6.682664E-2,-1.2632363E-1,-3.7663642E-1,-5.649146E-1,-3.671561E-1,-1.6571291E-1,-6.2380534E-1,-5.274549E-1,6.097042E-1,5.7501197E-1,6.618978E-1,5.230181E-1,5.6997967E-1,6.293738E-1,3.6047524E-1,5.404201E-1,1.6532226E-1,3.4920573E-1,5.3698546E-1,7.050888E-1,4.9970075E-1,3.398206E-1,4.71513E-1,6.232693E-1,1.626678E-1,4.6537203E-1,1.2477787E-1,-4.2704728E-2,6.3009614E-1,5.160583E-1,-6.6053987E-1,-6.92525E-1,-7.138311E-1,-6.9868994E-1,-7.145024E-1,-6.819815E-1,-6.032198E-1,-6.8173015E-1,-6.65252E-1,-6.9751054E-1,-6.809583E-1,-7.2598034E-1,-7.1445686E-1,-7.222574E-1,-6.4620227E-1,-7.2598034E-1,-5.6592166E-1,-6.4175713E-1,-5.7260424E-1,-4.4732124E-1,-7.009465E-1,-7.230412E-1,-7.1776557E-1,-6.8449575E-1,-7.2598034E-1,-7.125982E-1,-7.0329344E-1,-7.23915E-1,-6.891553E-1,-7.2598034E-1,-5.006606E-1,-6.723845E-1,-5.607872E-1,-7.2598034E-1,-3.9122272E-1,-1.6350909E-1,-3.6299017E-1,-5.6853884E-1,-6.762557E-1,-6.065152E-1,-7.052803E-1,-6.3230544E-1,-5.1087505E-1,-6.26701E-1,-6.726559E-1,-6.897075E-1,-7.1944E-1,-6.979231E-1,-5.369677E-1,-3.959893E-1,-6.374691E-1,-6.88909E-1,-7.131689E-1,-7.005856E-1,-7.442058E-2,-2.9389083E-1,-5.687036E-1,-4.0686813E-1,2.6746643E-1,1.0961191E-1,-1.2995945E-1,2.4199346E-1,-6.349333E-1,-5.078454E-1,-6.8532544E-1,-3.69944E-1,2.3765275E-1,-6.4327374E-2,-4.2544514E-1,-1.4220233E-1,-5.5336964E-1,-6.210193E-1,-5.37414E-1,-3.6299017E-1,-7.0941806E-1,-6.390366E-1,-6.9441594E-2,-3.1823796E-1,-3.892938E-1,-6.142911E-1,-4.7973073E-1,-2.9971665E-1,-6.3230544E-1,-5.727178E-1,6.6248125E-1,5.851652E-1,6.086725E-1,3.7167412E-1,4.5926672E-1,2.3716564E-1,5.986951E-1,2.6281008E-1,3.5662192E-1,5.1566416E-1,2.3857303E-1,5.444853E-1,1.0641652E-1,-1.960147E-1,3.3842695E-1,1.8563043E-1,-5.423991E-1,-3.091495E-1,-5.5960983E-1,-6.152376E-1,-2.8769177E-1,-4.9576172E-1,4.0566668E-1,1.0542042E-1,-3.6747152E-1,-4.7808462E-1,-6.800546E-1,-6.125459E-1,-5.255887E-1,-6.4430755E-1,1.8552832E-1,-1.8263657E-1,-6.524633E-1,-5.7008564E-1,-3.522083E-1,-5.423991E-1,4.2348853E-1,6.5199506E-1,-1.4175949E-1,-4.6901825E-1,6.634693E-1,5.880566E-1,5.7151645E-1,3.5901377E-1,-7.156092E-1,-6.3059604E-1,4.2321723E-2,2.099943E-1,-7.1107996E-1,-6.9366324E-1,-6.316972E-1,-6.9413906E-1,-7.203262E-1,-7.181592E-1,-7.2262174E-1,-6.9832397E-1,-7.2598034E-1,-6.549451E-1,-5.4339844E-1,-6.617343E-1,-7.009659E-1,-7.13706E-1,-7.227879E-1,-7.142394E-1,-6.425343E-1,-6.117812E-1,-7.148967E-1,-6.708426E-1,-6.6484517E-1,-7.2227544E-1,-6.0131705E-1,-6.819815E-1,-5.584127E-1,-6.41564E-1,-7.2598034E-1,-7.2216946E-1,-7.2456723E-1,-7.148967E-1,-7.081549E-1,-7.1907526E-1,-6.115401E-1,-7.0639706E-1,-6.513255E-1,-5.444853E-1,-7.03981E-1,-6.7591274E-1,-6.377396E-1,-6.972855E-1,-7.16552E-1,-7.2598034E-1,-7.041463E-1,-6.6654336E-1,6.194144E-1,6.870015E-1,7.242268E-1,6.963485E-1,-3.754335E-1,-5.642195E-1,-6.7726433E-1,-4.6723995E-1,-2.5050104E-1,-7.456774E-2,-9.3950406E-2,-5.274845E-1,-6.556715E-1,-5.725211E-1,-3.3605987E-1,-5.5371386E-1,-4.0780377E-1,-8.9406446E-2,5.637024E-1,-2.9365497E-2,-3.8122255E-2,-3.3203754E-1,-1.3389677E-1,9.5504835E-2,-6.3412493E-1,-3.017061E-1,-6.98058E-2,2.5861102E-1,-1.8821712E-1,-5.4962885E-1,4.6506557E-1,2.1352364E-1,1.0371148E-1,-1.8373576E-1,-6.080546E-1,-5.097309E-1,-7.205229E-1,-6.5730983E-1,-7.249287E-1,-7.20066E-1,-6.607556E-1,-5.286787E-1,5.6979334E-1,-7.2598034E-1,-4.282878E-1,-1.640503E-1,-7.0570004E-1,-6.155086E-1,-8.0092974E-2,5.7214165E-1,-5.9526855E-1,-1.9809785E-1,-7.111705E-1,-6.035258E-1,-6.923837E-1,4.9294963E-1,-7.0783085E-1,-7.2598034E-1,-7.2598034E-1,-7.25486E-1,-6.3128723E-3,3.4649062E-1,3.6815116E-1,5.797545E-1,-6.035258E-1,-6.5998214E-1,-5.984838E-1,-4.8705012E-1,-2.949295E-1,-5.001198E-1],"split_indices":[1,6,1,1,1,1,1,8,1,1,1,6,6,1,1,2,11,5,1,1,0,5,1,10,0,10,1,5,5,5,1,5,5,10,8,5,5,1,1,1,5,8,8,9,8,9,1,8,5,5,5,1,5,10,8,8,8,8,8,8,5,1,8,9,3,3,3,3,8,2,2,0,2,2,11,5,8,5,5,5,5,5,8,5,5,5,3,5,5,2,11,5,10,5,8,5,5,5,2,5,5,2,9,3,3,5,5,5,5,5,10,8,5,2,8,8,10,3,5,0,9,3,3,8,7,3,8,0,0,1,0,0,2,0,0,1,2,1,0,5,0,0,0,0,0,8,0,5,0,2,8,1,1,13,8,1,8,1,1,0,0,8,0,5,5,0,5,0,0,0,0,5,0,0,5,0,0,0,0,1,0,0,0,0,0,0,8,0,0,13,0,13,0,8,5,0,0,0,0,0,0,0,0,0,2,1,8,1,8,8,0,0,0,0,0,1,1,1,1,1,1,2,0,0,8,0,0,0,5,13,13,13,5,13,2,0,0,1,0,1,1,8,1,1,13,1,8,1,5,8,0,2,2,0,1,0,0,2,5,0,0,8,8,5,0,0,8,5,1,5,9,2,8,2,8,2,5,5,8,0,0,1,1,1,11,5,5,5,8,5,5,5,2,5,1,11,1,1,5,1,5,5,9,0,2,1,1,5,9,2,0,5,0,5,5,0,0,9,2,9,2,0,2,5,2,1,8,5,5,0,0,2,5,5,8,5,9,5,5,5,5,0,5,5,5,0,8,9,5,5,2,5,8,0,0,9,11,5,11,10,5,5,0,1,8,5,0,8,1,5,1,5,1,1,8,11,8,2,1,1,0,1,0,1,1,1,11,5,5,5,5,11,0,0,0,0,5,0,0,8,5,10,2,5,5,5,5,5,8,5,8,5,1,1,1,8,8,1,8,1,1,5,5,5,5,1,8,8,2,8,5,0,0,5,5,0,3,5,3,3,0,0,0,0,0,2,0,5,5,2,0,5,0,0,10,0,0,5,0,2,0,0,0,2,2,0,0,0,0,0,0,0,0,0,0,2,3,0,0,5,5,0,2,5,5,0,5,0,5,10,11,10,13,3,0,0,0,0,3,5,11,3,2,11,0,0,0,5,2,9,9,11,2,5,11,2,0,0,0,0,5,0,0,0,0,2,0,0,3,5,2,0,0,0,0,0,0,5,0,3,2,5,0,0,0,0,0,0,0,2,2,11,11,0,0,2,0,0,0,0,2,0,0,5,0,0,0,0,0,2,10,0,0,3,0,3,0,5,0,0,2,11,0,0,3,5,2,2,5,0,5,0,2,0,0,5,0,0,0,0,0,0,0,0,5,5,5,5,0,0,5,11,2,0,0,0,13,0,0,0,5,13,13,0,5,0,0,0,0,0,9,5,0,5,2,9,2,2,0,11,5,0,0,2,2,5,0,0,0,0,0,0,5,5,0,5,2,3,0,0,0,5,0,0,2,0,0,0,0,5,3,0,0,0,0,0,5,0,5,0,0,5,0,0,9,2,0,9,0,3,0,0,5,0,0,2,0,0,13,5,5,5,0,5,5,0,5,13,0,5,0,0,2,9,0,0,13,0,0,0,3,5,13,13,13,5,5,5,2,5,5,5,0,0,0,5,0,0,0,0,0,0,0,0,0,0,0,0,0,0,0,0,0,0,0,0,0,0,0,0,0,0,0,0,0,0,0,0,0,0,0,0,0,0,0,0,0,0,0,0,0,0,0,0,0,0,0,0,0,0,0,0,0,0,0,0,0,0,0,0,0,0,0,0,0,0,0,0,0,0,0,0,0,0,0,0,0,0,0,0,0,0,0,0,0,0,0,0,0,0,0,0,0,0,0,0,0,0,0,0,0,0,0,0,0,0,0,0,0,0,0,0,0,0,0,0,0,0,0,0,0,0,0,0,0,0,0,0,0,0,0,0,0,0,0,0,0,0,0,0,0,0,0,0,0,0,0,0,0,0,0,0,0,0,0,0,0,0,0,0,0,0,0,0,0,0,0,0,0,0,0,0,0,0,0,0,0,0,0,0,0,0,0,0,0,0,0,0,0,0,0,0,0,0,0,0,0,0,0,0,0,0,0,0,0,0,0,0,0,0,0,0,0,0,0,0,0,0,0,0,0,0,0,0,0,0,0,0,0,0,0,0,0,0,0,0,0,0,0,0,0,0,0,0,0,0,0,0,0,0,0,0,0,0,0,0,0,0,0,0,0,0,0,0,0,0,0,0,0,0,0,0,0,0,0,0,0,0,0,0,0,0,0,0,0,0,0,0,0,0,0,0,0,0,0,0,0,0,0,0,0,0,0,0,0,0,0,0,0,0,0,0,0,0,0,0,0,0,0,0,0,0,0,0,0,0,0,0,0,0,0,0,0,0,0,0,0,0,0,0,0,0,0,0,0,0,0,0,0,0,0,0,0,0,0,0,0,0,0,0,0,0,0,0,0,0,0,0,0,0,0,0,0,0,0,0,0,0,0,0,0,0,0,0,0,0,0,0,0,0,0,0,0,0,0,0,0,0,0,0,0,0,0,0,0,0,0,0,0,0,0,0,0,0,0,0,0,0,0,0,0,0,0,0,0,0,0,0,0,0,0,0,0,0,0,0,0,0,0,0,0,0,0,0,0,0,0],"split_type":[0,0,0,0,0,0,0,0,0,0,0,0,0,0,0,0,0,0,0,0,0,0,0,0,0,0,0,0,0,0,0,0,0,0,0,0,0,0,0,0,0,0,0,0,0,0,0,0,0,0,0,0,0,0,0,0,0,0,0,0,0,0,0,0,0,0,0,0,0,0,0,0,0,0,0,0,0,0,0,0,0,0,0,0,0,0,0,0,0,0,0,0,0,0,0,0,0,0,0,0,0,0,0,0,0,0,0,0,0,0,0,0,0,0,0,0,0,0,0,0,0,0,0,0,0,0,0,0,0,0,0,0,0,0,0,0,0,0,0,0,0,0,0,0,0,0,0,0,0,0,0,0,0,0,0,0,0,0,0,0,0,0,0,0,0,0,0,0,0,0,0,0,0,0,0,0,0,0,0,0,0,0,0,0,0,0,0,0,0,0,0,0,0,0,0,0,0,0,0,0,0,0,0,0,0,0,0,0,0,0,0,0,0,0,0,0,0,0,0,0,0,0,0,0,0,0,0,0,0,0,0,0,0,0,0,0,0,0,0,0,0,0,0,0,0,0,0,0,0,0,0,0,0,0,0,0,0,0,0,0,0,0,0,0,0,0,0,0,0,0,0,0,0,0,0,0,0,0,0,0,0,0,0,0,0,0,0,0,0,0,0,0,0,0,0,0,0,0,0,0,0,0,0,0,0,0,0,0,0,0,0,0,0,0,0,0,0,0,0,0,0,0,0,0,0,0,0,0,0,0,0,0,0,0,0,0,0,0,0,0,0,0,0,0,0,0,0,0,0,0,0,0,0,0,0,0,0,0,0,0,0,0,0,0,0,0,0,0,0,0,0,0,0,0,0,0,0,0,0,0,0,0,0,0,0,0,0,0,0,0,0,0,0,0,0,0,0,0,0,0,0,0,0,0,0,0,0,0,0,0,0,0,0,0,0,0,0,0,0,0,0,0,0,0,0,0,0,0,0,0,0,0,0,0,0,0,0,0,0,0,0,0,0,0,0,0,0,0,0,0,0,0,0,0,0,0,0,0,0,0,0,0,0,0,0,0,0,0,0,0,0,0,0,0,0,0,0,0,0,0,0,0,0,0,0,0,0,0,0,0,0,0,0,0,0,0,0,0,0,0,0,0,0,0,0,0,0,0,0,0,0,0,0,0,0,0,0,0,0,0,0,0,0,0,0,0,0,0,0,0,0,0,0,0,0,0,0,0,0,0,0,0,0,0,0,0,0,0,0,0,0,0,0,0,0,0,0,0,0,0,0,0,0,0,0,0,0,0,0,0,0,0,0,0,0,0,0,0,0,0,0,0,0,0,0,0,0,0,0,0,0,0,0,0,0,0,0,0,0,0,0,0,0,0,0,0,0,0,0,0,0,0,0,0,0,0,0,0,0,0,0,0,0,0,0,0,0,0,0,0,0,0,0,0,0,0,0,0,0,0,0,0,0,0,0,0,0,0,0,0,0,0,0,0,0,0,0,0,0,0,0,0,0,0,0,0,0,0,0,0,0,0,0,0,0,0,0,0,0,0,0,0,0,0,0,0,0,0,0,0,0,0,0,0,0,0,0,0,0,0,0,0,0,0,0,0,0,0,0,0,0,0,0,0,0,0,0,0,0,0,0,0,0,0,0,0,0,0,0,0,0,0,0,0,0,0,0,0,0,0,0,0,0,0,0,0,0,0,0,0,0,0,0,0,0,0,0,0,0,0,0,0,0,0,0,0,0,0,0,0,0,0,0,0,0,0,0,0,0,0,0,0,0,0,0,0,0,0,0,0,0,0,0,0,0,0,0,0,0,0,0,0,0,0,0,0,0,0,0,0,0,0,0,0,0,0,0,0,0,0,0,0,0,0,0,0,0,0,0,0,0,0,0,0,0,0,0,0,0,0,0,0,0,0,0,0,0,0,0,0,0,0,0,0,0,0,0,0,0,0,0,0,0,0,0,0,0,0,0,0,0,0,0,0,0,0,0,0,0,0,0,0,0,0,0,0,0,0,0,0,0,0,0,0,0,0,0,0,0,0,0,0,0,0,0,0,0,0,0,0,0,0,0,0,0,0,0,0,0,0,0,0,0,0,0,0,0,0,0,0,0,0,0,0,0,0,0,0,0,0,0,0,0,0,0,0,0,0,0,0,0,0,0,0,0,0,0,0,0,0,0,0,0,0,0,0,0,0,0,0,0,0,0,0,0,0,0,0,0,0,0,0,0,0,0,0,0,0,0,0,0,0,0,0,0,0,0,0,0,0,0,0,0,0,0,0,0,0,0,0,0,0,0,0,0,0,0,0,0,0,0,0,0,0,0,0,0,0,0,0,0,0,0,0,0,0,0,0,0,0,0,0,0,0,0,0,0,0,0,0,0,0,0,0,0,0,0,0,0,0,0,0,0,0,0,0,0,0,0,0,0,0,0,0,0,0,0,0,0,0,0,0,0,0,0,0,0,0,0,0,0,0,0,0,0,0,0,0,0,0,0,0,0,0,0,0,0,0,0,0,0,0,0,0,0,0,0,0,0,0,0,0,0,0,0,0,0,0,0,0,0,0,0,0,0,0,0,0,0,0,0,0,0,0,0,0,0,0,0,0,0,0,0,0,0,0,0,0,0,0,0,0,0,0,0,0,0,0,0,0,0,0,0,0,0,0,0,0,0,0,0,0,0,0,0,0,0],"sum_hessian":[1.3857475E5,3.444725E4,1.041275E5,1.683875E4,1.76085E4,2.780125E4,7.632625E4,3.367E3,1.347175E4,8.11025E3,9.49825E3,1.698975E4,1.08115E4,4.08465E4,3.547975E4,1.75675E3,1.61025E3,2.72425E3,1.07475E4,6.3115E3,1.79875E3,3.928E3,5.57025E3,9.16025E3,7.8295E3,3.14875E3,7.66275E3,8.0025E2,4.004625E4,8.53075E3,2.6949E4,1.493E3,2.6375E2,1.29375E3,3.165E2,9.9025E2,1.734E3,4.40525E3,6.34225E3,3.58125E3,2.73025E3,5.7525E2,1.2235E3,3.76175E3,1.6625E2,1.207E3,4.36325E3,5.3225E3,3.83775E3,1.246E3,6.5835E3,2.14425E3,1.0045E3,4.52875E3,3.134E3,6.085E2,1.9175E2,3.5204E4,4.84225E3,4.0375E2,8.127E3,2.566225E4,1.28675E3,1.40975E3,8.325E1,2.0175E2,6.2E1,1.14375E3,1.5E2,2.635E2,5.3E1,2.025E1,9.7E2,7.965E2,9.375E2,2.09275E3,2.3125E3,2.042E3,4.30025E3,2.96175E3,6.195E2,2.54575E3,1.845E2,5.185E2,5.675E1,1.10975E3,1.1375E2,3.19775E3,5.64E2,6.9E1,9.725E1,9.3525E2,2.7175E2,3.91525E3,4.48E2,4.132E3,1.1905E3,3.74575E3,9.2E1,7.4375E2,5.0225E2,4.625E1,6.53725E3,1.09625E3,1.048E3,9.525E2,5.2E1,4.262E3,2.6675E2,1.86075E3,1.27325E3,5.35E2,7.35E1,7.075E1,1.21E2,3.18255E4,3.3785E3,4.7805E3,6.175E1,3.15E1,3.7225E2,5.62175E3,2.50525E3,1.2494E4,1.316825E4,4.6375E2,8.23E2,1.241E3,1.6875E2,5.95E1,2.375E1,1.505E2,5.125E1,3.625E1,2.575E1,1.00725E3,1.365E2,1.2075E2,2.925E1,2.2875E2,3.475E1,2.725E1,2.575E1,4.335E2,5.365E2,3.8125E2,4.1525E2,8.6925E2,6.825E1,1.67025E3,4.225E2,1.21525E3,1.09725E3,1.46225E3,5.7975E2,3.2615E3,1.03875E3,2.51425E3,4.475E2,5.395E2,8E1,1.275E2,2.41825E3,1.0525E2,7.925E1,4.6675E2,5.175E1,2.625E1,3.05E1,4.4275E2,6.67E2,7.675E1,3.7E1,7.6625E2,2.4315E3,2E1,5.44E2,3.7E1,3.2E1,6.05E1,3.675E1,3.325E1,9.02E2,2.4525E2,2.65E1,3.5975E3,3.1775E2,3.5325E2,9.475E1,3.94125E3,1.9075E2,1.1705E3,2E1,3.359E3,3.8675E2,3.975E1,5.225E1,2.075E1,7.23E2,4.8175E2,2.05E1,2.375E1,2.25E1,4.833E3,1.70425E3,9.23E2,1.7325E2,9.365E2,1.115E2,5.355E2,4.17E2,2E1,3.2E1,3.02825E3,1.23375E3,1.83E2,8.375E1,1.328E3,5.3275E2,1.04275E3,2.305E2,5.055E2,2.95E1,2.025E1,5.325E1,3.925E1,3.15E1,7.25E1,4.85E1,2.6114E4,5.7115E3,1.8835E3,1.495E3,4.24875E3,5.3175E2,3.25E1,2.925E1,3.4825E2,2.4E1,4.3385E3,1.28325E3,1.717E3,7.8825E2,1.028875E4,2.20525E3,9.0635E3,4.10475E3,3.435E2,1.2025E2,5.0275E2,3.2025E2,9.47E2,2.94E2,3.55E1,1.3325E2,2.9E1,3.05E1,4.2E1,1.085E2,2.8E1,2.325E1,1.0225E2,9.05E2,9.85E1,3.8E1,2.575E1,9.5E1,1.4925E2,7.95E1,7.15E1,3.62E2,4.625E1,4.9025E2,2.77E2,1.0425E2,6.675E1,3.485E2,4.66E2,4.0325E2,2.725E1,4.1E1,1.3775E3,2.9275E2,1.0175E2,3.2075E2,5.48E2,6.6725E2,2.59E2,8.3825E2,1.41225E3,5E1,2.425E2,3.3725E2,8.815E2,2.38E3,1.32E2,9.0675E2,1.25275E3,1.2615E3,3.4425E2,1.0325E2,5.9E1,4.805E2,2.05E1,5.95E1,5.1E1,7.65E1,7.1275E2,1.7055E3,6.85E1,3.675E1,5.925E1,2E1,3.1E2,1.5675E2,2.45E1,2.725E1,3.685E2,7.425E1,3.0675E2,3.6025E2,2.675E1,5E1,1.7775E2,5.885E2,2.2955E3,1.36E2,1.925E2,3.515E2,3.225E1,2.825E1,2.635E2,6.385E2,4.95E1,1.9575E2,1.566E3,2.0315E3,1E2,2.1775E2,1.3625E2,2.17E2,2.025E1,7.45E1,3.60325E3,3.38E2,3.325E1,1.575E2,6.66E2,5.045E2,2.191E3,1.168E3,4.275E1,3.44E2,2.075E1,3.15E1,5.645E2,1.585E2,3.7875E2,1.03E2,4.01425E3,8.1875E2,1.58875E3,1.155E2,6.74E2,2.49E2,1.495E2,2.375E1,4.0825E2,5.2825E2,5.55E1,5.6E1,3.585E2,1.77E2,1.225E2,2.945E2,1.43375E3,1.5945E3,3.5625E2,8.775E2,1.4925E2,3.375E1,5.925E1,2.45E1,9.0475E2,4.2325E2,3.0775E2,2.25E2,2.51E2,7.9175E2,1.0875E2,1.2175E2,4.72E2,3.35E1,2.25E1,3.075E1,2.05E1,5.2E1,2.475E1,2.375E1,2.58885E4,2.255E2,5.51625E3,1.9525E2,1.04725E3,8.3625E2,9.12E2,5.83E2,3.757E3,4.9175E2,1.475E2,3.8425E2,5.225E1,2.96E2,2.984E3,1.3545E3,5.805E2,7.0275E2,1.309E3,4.08E2,2.4425E2,5.44E2,2.185E2,1.007025E4,1.55325E3,6.52E2,7.7315E3,1.332E3,1.515E3,2.58975E3,2.7975E2,6.375E1,2E1,1.0025E2,4.05E2,9.775E1,8.2875E2,1.1825E2,1.81E2,1.13E2,6.725E1,6.6E1,2.15E1,2.05E1,8.325E1,2.525E1,7.3E1,2.925E1,3.3525E2,5.6975E2,7.8E1,2.05E1,5.575E1,3.925E1,2.9E1,1.2025E2,3.975E1,3.975E1,4.6E1,2.55E1,2.92E2,7E1,2.45E1,2.175E1,4.02E2,8.825E1,3.7E1,2.4E2,5.35E1,5.075E1,3.85E1,2.825E1,3.275E2,2.1E1,4.3875E2,2.725E1,5.15E1,3.5175E2,1.71E2,1.2065E3,8.95E1,2.0325E2,2.825E1,7.35E1,2.565E2,6.425E1,4.745E2,7.35E1,5.39E2,1.2825E2,1.295E2,1.295E2,6.86E2,1.5225E2,6.3925E2,7.73E2,3E1,2E1,2.4E1,2.185E2,1.455E2,1.9175E2,2.3875E2,6.4275E2,1.6E3,7.8E2,1.0825E2,2.375E1,3.565E2,5.5025E2,7.485E2,5.0425E2,4.8E1,1.2135E3,8.775E1,2.565E2,6.8E1,3.525E1,3.35E1,2.55E1,3.6825E2,1.1225E2,2.75E1,3.2E1,2.65E1,2.45E1,5.025E1,2.625E1,8.75E1,6.2525E2,1.40775E3,2.9775E2,3.575E1,3.275E1,2.05E1,3.875E1,2.7325E2,3.675E1,6.175E1,9.5E1,2.875E2,8.1E1,4.85E1,2.575E1,2.2875E2,7.8E1,1.9725E2,1.63E2,2.2E1,2.8E1,4.55E1,1.3225E2,3.955E2,1.93E2,1.84475E3,4.5075E2,5.925E1,7.675E1,1.7125E2,2.125E1,2.5225E2,9.925E1,2.3875E2,2.475E1,2.1975E2,4.1875E2,2.675E1,2.275E1,1.6075E2,3.5E1,2.8525E2,1.28075E3,1.7335E3,2.98E2,6.475E1,3.525E1,1.5575E2,6.2E1,1.02E2,3.425E1,1.595E2,5.75E1,4.725E1,2.725E1,1.43E2,3.46025E3,1.21E2,2.17E2,9.125E1,6.625E1,6.135E2,5.25E1,3.3775E2,1.6675E2,1.6345E3,5.565E2,2.55E2,9.13E2,2.275E1,2E1,2.0775E2,1.3625E2,4.7725E2,8.725E1,1.1775E2,4.075E1,2.25E2,1.5375E2,6.975E1,3.325E1,3.68875E3,3.255E2,6.425E1,7.545E2,1.56775E3,2.1E1,4.465E2,2.275E2,3.5E1,2.14E2,3.325E1,1.1625E2,2.805E2,1.2775E2,2.1375E2,3.145E2,2.15E1,3.4E1,2.425E1,3.175E1,1.6025E2,1.9825E2,1.4925E2,2.775E1,6.525E1,5.725E1,2.2625E2,6.825E1,1.0535E3,3.8025E2,1.1255E3,4.69E2,2.615E2,9.475E1,5.7925E2,2.9825E2,9.575E1,5.35E1,3.725E1,2.2E1,4.7275E2,4.32E2,5.1E1,3.7225E2,1.8325E2,1.245E2,1.78E2,4.7E1,6.325E1,1.8775E2,2.725E2,5.1925E2,6.925E1,3.95E1,3.575E1,8.6E1,3.765E2,9.55E1,2.875E1,2.325E1,2.035025E4,5.53825E3,1.555E2,7E1,3.60425E3,1.912E3,4.4E1,1.5125E2,2E1,1.02725E3,3.795E2,4.5675E2,3.0725E2,6.0475E2,3.65E1,5.465E2,3.44675E3,3.1025E2,2.5825E2,2.335E2,1.085E2,3.9E1,1.23E2,2.6125E2,2.975E1,2.25E1,6.45E1,2.315E2,2.19125E3,7.9275E2,6.42E2,7.125E2,2.5275E2,3.2775E2,3.9525E2,3.075E2,7.35E2,5.74E2,3.7925E2,2.875E1,1.6225E2,8.2E1,3.9475E2,1.4925E2,1.83E2,3.55E1,2.375E1,1.00465E4,2.675E1,1.5265E3,5.3275E2,1.1925E2,3.207E3,4.5245E3,7.04E2,6.28E2,1.24625E3,2.6875E2,1.04E2,2.48575E3,5.075E1,2.29E2,4.275E1,2.1E1,2.475E1,3.8025E2,7.7E1,2.075E1,5.53E2,2.7575E2,8.225E1,3.6E1,4.4E1,1.37E2,8.35E1,2.95E1,4.1E1,2.625E1,3.65E1,2.95E1,5.025E1,3.3E1,5.125E1,2.175E1,5.875E1,2.765E2,2.6E1,5.4375E2,5.725E1,2.075E1,2.675E1,2.9E1,4.25E1,7.775E1,2E1,2.6E1,1.0575E2,1.8625E2,4.675E1,2.325E1,3.3125E2,7.075E1,4.75E1,4.075E1,1.38E2,1.02E2,2.625E1,2.725E1,2.075E1,3E1,1.535E2,1.74E2,7.875E1,3.6E2,2.425E1,2.725E1,3.17E2,3.475E1,7.45E1,9.65E1,3.145E2,8.92E2,2.075E1,6.875E1,1.435E2,5.975E1,5.325E1,2.025E1,1.9175E2,6.475E1,4.425E1,2E1,8.025E1,3.9425E2,3.1E1,4.25E1,1.6225E2,3.7675E2,6.7E1,6.125E1,5.3E1,7.65E1,1.04E2,2.55E1,4.2975E2,2.5625E2,8.2E1,7.025E1,5.26E2,1.1325E2,3.9925E2,3.7375E2,1.92E2,2.65E1,9.375E1,5.175E1,1.6625E2,2.55E1,1.76E2,6.275E1,5.18E2,1.2475E2,1.2785E3,3.215E2,1.12E2,6.68E2,2.6E1,8.225E1,3.355E2,2.1E1,2.2175E2,3.285E2,6.1625E2,1.3225E2,3.3825E2,1.66E2,2.7E1,2.1E1,1.097E3,1.165E2,5.95E1,2.825E1,2.1475E2,4.175E1,4.725E1,2.075E1,3.1875E2,4.95E1,4.45E1,6.775E1,2.85E1,2.175E1,5.8E1,2.95E1,5.4275E2,8.25E1,1.4325E2,1.2645E3,1.87E2,1.1075E2,2.2275E2,5.05E1,2.975E1,3.2E1,3.175E1,6.325E1,2.56E2,3.15E1,5.525E1,2.575E1,2.525E1,2.325E1,6.525E1,1.635E2,5.65E1,2.15E1,1.705E2,2.675E1,6.1E1,1.02E2,2.25E1,2.3E1,1.03E2,2.925E1,2.38E2,1.575E2,1.325E2,6.05E1,6.715E2,1.17325E3,1.9475E2,2.56E2,3.75E1,2.175E1,5.35E1,2.325E1,6.55E1,1.0575E2,8.475E1,1.675E2,7.85E1,2.075E1,1.195E2,1.1925E2,6.65E1,1.5325E2,3.2675E2,9.2E1,6.75E1,9.325E1,1.2175E2,1.635E2,1.2575E3,2.325E1,1.22625E3,5.0725E2,1.0825E2,1.8975E2,2.525E1,3.95E1,1.21E2,3.475E1,3.85E1,2.35E1,2.425E1,7.775E1,1.205E2,3.9E1,3.2E1,2.55E1,2.65E1,2.075E1,8.875E1,5.425E1,2.8085E3,6.5175E2,6.325E1,5.775E1,8.575E1,1.3125E2,6.575E1,2.55E1,3.225E1,3.4E1,1.26E2,4.875E2,2.275E1,2.975E1,3.175E1,3.06E2,1.42E2,2.475E1,2.9E1,1.6055E3,5.3025E2,2.625E1,2.0075E2,5.425E1,3.2E1,1.7575E2,6.9E1,6.725E1,4.0275E2,7.45E1,4.175E1,4.55E1,9E1,2.775E1,2E1,2.075E1,1.46E2,7.9E1,1.2275E2,3.1E1,4.05E1,2.925E1,2.648E3,1.04075E3,2.22E2,1.035E2,4.225E1,2.2E1,5.7825E2,1.7625E2,5.1E2,1.05775E3,2.39E2,2.075E2,1.5925E2,6.825E1,9.975E1,1.1425E2,8.1E1,3.525E1,2.2725E2,5.325E1,6.25E1,6.525E1,5.575E1,1.58E2,1.9325E2,1.2125E2,3.575E1,1.245E2,1.7325E2,2.5E1,6.575E1,8.35E1,2.875E1,3.65E1,3.45E1,2.275E1,1.99E2,2.725E1,2.325E1,4.5E1,9.375E2,1.16E2,3.28E2,5.225E1,8.2475E2,3.0075E2,3.9925E2,6.975E1,2.85E1,2.33E2,7.075E1,2.4E1,4.7925E2,1E2,1.995E2,9.875E1,4.35E1,5.225E1,2.4E1,2.95E1,1.7475E2,2.98E2,1.8925E2,2.4275E2,2.025E1,3.075E1,3.0825E2,6.4E1,1.0325E2,8E1,4.5E1,7.95E1,5.925E1,1.1875E2,2.525E1,2.175E1,2.4E1,3.925E1,4.225E1,1.455E2,1.2775E2,1.4475E2,1.9975E2,3.195E2,3.5E1,3.425E1,5.575E1,3.025E1,2.1925E2,1.5725E2,3.85E1,5.7E1,6.6125E3,1.373775E4,5.512E3,2.625E1,2.775E1,1.2775E2,4.175E1,2.825E1,9.7225E2,2.632E3,1.81925E3,9.275E1,2.175E1,2.225E1,3.275E1,1.185E2,4.75E1,9.7975E2,3.465E2,3.3E1,4.1375E2,4.3E1,2.12E2,9.525E1,5.1375E2,3.275E1,1.344E3,2.10275E3,5.075E1,2.595E2,2.3825E2,2E1,1.32E2,1.015E2,4.525E1,6.325E1,3.85E1,8.45E1,1.33E2,1.2825E2,2.725E1,3.725E1,2.07E2,2.45E1,5.105E2,1.68075E3,6.4825E2,1.445E2,3.84E2,2.58E2,2.125E1,6.9125E2,2.22E2,3.075E1,2.3925E2,8.85E1,2.43E2,1.5225E2,8.5E1,2.225E2,2.19E2,5.16E2,3.2125E2,2.5275E2,2.2525E2,1.54E2,1.04E2,5.825E1,2.025E1,6.175E1,1.8225E2,2.125E2,6.825E1,8.1E1,1.4775E2,3.525E1,9.31175E3,7.3475E2,1.0355E3,4.91E2,1.28E2,4.0475E2,6.275E1,5.65E1,2.81425E3,3.9275E2,3.40075E3,1.12375E3,4.94E2,2.1E2,3.0825E2,3.1975E2,1.2255E3,2.075E1,2.485E2,2.025E1,2E1,8.4E1,1.7515E3,7.3425E2,2.875E1,2.2E1,5.275E1,1.7625E2,2.075E1,2.2E1,2.42E2,1.3825E2,3.2E1,4.5E1],"tree_param":{"num_deleted":"0","num_feature":"15","num_nodes":"1187","size_leaf_vector":"0"}},{"base_weights":[-7.920662E-1,-8.966227E-1,-4.8732224E-1,-7.5509167E-1,-1.0048231E0,-2.8798527E-1,-7.1061736E-1,-5.902373E-1,-1.0357451E0,-8.751237E-1,-1.1146972E0,-4.528186E-1,2.6867712E-1,-5.72608E-1,-1.4904982E0,-3.8398483E-1,-7.0032173E-1,-7.3251194E-1,-1.2814296E0,-9.007878E-1,-3.354427E-1,-1.1860875E0,-9.014451E-1,-2.3493555E-1,-5.70725E-1,2.2755173E-1,8.9265716E-1,-6.148831E-1,1.7000608E0,-1.5197613E0,-1.4828833E0,-5.51248E-1,-2.6638618E-1,-1.0292102E0,-6.747455E-1,-3.2129896E-1,-1.008327E0,-1.216964E0,-1.4260545E0,-9.442551E-1,-6.3997185E-1,-5.4160213E-1,3.204326E-1,-1.1336449E0,-1.3854556E0,-8.2052857E-1,-1.5027248E0,-4.4750658E-1,-1.5322764E-1,-7.255979E-1,-5.0493395E-1,3.093825E-1,-2.4430908E-1,1.1640956E0,-4.1786054E-1,-7.067362E-1,-3.468287E-1,1.5987962E0,2.1113775E0,-1.4744071E0,-1.5226933E0,-1.483408E0,-1.4707032E0,-3.1310815E-1,-5.903421E-1,-3.5467395E-1,-2.11052E-1,-3.8833237E-1,-1.1099355E0,-7.634369E-1,-6.2456775E-1,-9.3799025E-1,1.2846005E-1,-1.0719908E0,4.329998E-1,-1.2665526E0,-1.067404E0,-1.4690756E0,-1.4124095E0,-8.6407614E-1,-1.0913986E0,-6.853069E-1,-1.0089973E-1,-7.8423166E-1,-2.3151578E-2,-1.161901E0,9.8836136E-1,-1.0491257E0,-1.3718557E0,-1.3976285E0,-1.3049262E0,-1.0709914E0,-4.7125092E-1,-1.566369E0,-1.4839215E0,-1.753365E-1,-4.9768662E-1,1.1336528E-1,-2.0454206E-1,-5.1797026E-1,-7.7906424E-1,-3.5697132E-1,-5.404617E-1,1.0172964E0,2.3374175E-1,-9.699105E-1,-1.1765196E-1,1.4216256E0,1.027262E0,-3.9975192E-2,-7.777817E-1,-6.348423E-1,-8.4463143E-1,-5.117635E-1,5.7156585E-2,1.7214094E0,1.491616E0,2.183545E0,2.0483382E0,-1.5456039E0,-1.4940213E0,-1.4839834E0,-1.4816505E0,-1.4351889E0,-1.4838848E0,-5.1438326E-1,-2.884722E-2,-5.136281E-1,-6.755415E-1,-2.386235E-1,-3.9858145E-1,-2.982187E-1,-6.1497074E-2,-7.8777444E-1,-2.1074696E-1,-1.1397152E0,-9.325125E-1,-8.022542E-1,-6.5175855E-1,-5.915892E-1,-7.47078E-1,-1.0733593E0,-4.7198457E-1,4.681857E-1,-5.4547295E-2,-1.1648139E0,-7.7029145E-1,1.4729156E0,-1.5014366E0,-1.2481042E0,-1.3850753E0,-3.3211258E-1,-1.2734388E0,-1.5312711E0,-1.4609978E0,-1.4095308E0,-1.4870138E0,-7.210025E-1,-9.555673E-1,-1.0430889E0,-1.193842E0,-3.1845924E-1,-7.634129E-1,3.2127697E-2,-6.2509805E-1,-1.069665E0,-7.0199525E-1,3.2102236E-1,-7.1106315E-1,-1.2500159E0,-9.0263927E-1,1.4997854E0,7.2905415E-1,-1.2041875E0,-8.839645E-1,-1.3667171E0,-1.4432453E0,-1.2047877E0,-1.4014499E0,-1.3841556E0,-1.2035698E0,-1.221909E0,-1.0315284E0,-3.1453222E-1,-1.3129765E0,-1.5501927E0,-1.590122E0,-1.483924E0,-1.4838941E0,-3.5934538E-1,2.2429988E-2,-5.943193E-1,-4.1702637E-1,1.5252198E-1,-6.7693496E-1,-1.0632985E-1,-3.2447708E-1,-6.418088E-1,-3.9524502E-1,-8.235294E-1,-6.320984E-1,-4.1439608E-1,-1.36463195E-2,-6.9088984E-1,-4.768674E-1,1.1421611E0,9.270867E-1,4.0762177E-1,1.1817128E-1,-7.2860944E-1,-1.1038411E0,1.7402329E-1,-2.6598957E-1,1.5471314E0,1.3156826E0,1.3370472E0,7.789576E-1,-5.866355E-1,-1.0408217E0,-7.9053265E-1,-1.0007133E0,2.1186605E-1,-5.8962137E-1,1.89488E-1,-3.2886225E-1,1.655105E0,1.7603043E0,1.5218753E0,1.4681689E0,-1.5871376E0,-1.536432E0,-1.4922676E0,-1.5074501E0,-1.4854349E0,-1.4838991E0,-1.469157E0,-1.4839982E0,-1.4838501E0,-1.4839362E0,-2.1580324E-1,-6.7329365E-1,-1.4734992E-1,2.6205194E-1,-5.995314E-1,-3.801797E-1,-1.2048274E0,-6.676833E-1,-2.221382E-1,-6.6371024E-1,-3.6458072E-1,-5.8118796E-1,-2.3896477E-1,-8.1564635E-1,9.9431E-2,-3.9900404E-1,-3.3580223E-1,-1.2390406E0,2.6816514E-1,-9.388078E-1,-1.072367E0,-1.2839224E0,-7.915059E-1,-1.0706137E0,-7.7567756E-1,-9.590574E-1,-6.270556E-1,-8.7386817E-1,-7.6518726E-1,-5.6958723E-1,-7.8613275E-1,-6.435402E-1,3.7563297E-1,-1.1211784E0,8.580752E-1,-7.48585E-1,-8.8393755E-2,6.555927E-1,-1.4329479E0,-1.3877228E-2,-1.2958944E0,-9.297554E-1,-1.3383112E0,-5.8263165E-1,1.3791873E0,1.6626716E0,-1.5041231E0,-1.4989351E0,-1.3018913E0,-1.2197778E0,-1.3302397E0,-1.4133732E0,-7.22966E-1,-2.0610912E-1,-1.4289975E0,-1.2523928E0,-1.4949865E0,-1.5458789E0,-1.554715E0,-1.4532077E0,-1.402657E0,-1.4424926E0,-1.5203543E0,-1.4455321E0,-6.352075E-1,-1.0146406E0,-1.0046871E0,-5.110899E-1,-1.1038187E0,-7.654878E-1,-1.2215011E0,-7.718946E-1,-8.984169E-2,-4.7216004E-1,-8.5798043E-1,-6.1305416E-1,-8.174982E-2,8.2413346E-1,-1.0112531E0,-2.6377845E-1,-9.6782917E-1,-1.1863483E0,-6.53407E-1,-1.1893799E0,-6.007452E-1,7.946985E-1,-1.0454725E-1,-1.0141218E0,-1.3822845E0,-1.0009315E0,1.6315836E0,1.4296614E0,1.6293384E-1,1.2016819E0,-1.1895607E0,-1.4136304E0,-9.5552534E-1,-7.074727E-1,-1.3578861E0,-1.4023411E0,-1.4293597E0,-1.4991488E0,-1.037408E0,-1.2823223E0,-1.4311523E0,-1.391619E0,-1.0900391E0,-1.4184091E0,-1.1510994E0,-1.5099773E0,-1.1187043E0,-1.2824215E0,-9.790063E-1,-1.2392063E0,-6.4484113E-1,1.7055721E0,-1.3463002E0,-1.0117173E0,-1.4832726E0,-1.5662678E0,-1.557707E0,-1.6467057E0,9.76694E-2,-6.504674E-1,4.0060228E-1,-2.7169037E-1,-7.279954E-1,-5.0423276E-1,-4.975099E-2,-4.662997E-1,2.8632045E-1,-3.3790737E-2,-1.3094884E-1,3.103701E-1,-2.9167575E-1,-4.7044906E-1,-4.810572E-1,-7.6295835E-1,-2.5375384E-1,-4.8057967E-1,-7.7466613E-1,-1.073716E0,-4.941825E-1,-7.9489374E-1,-3.7816367E-1,-8.336255E-1,1.7852926E-1,-2.3088068E-1,-5.825131E-1,-8.201458E-1,-3.2887134E-1,-5.6040287E-1,1.035207E0,1.280627E0,7.873138E-1,1.176557E0,4.427733E-2,5.967073E-1,-1.9647734E-1,2.1400954E-1,-1.3195676E0,-9.6136904E-1,8.0839366E-1,-4.974367E-2,1.8213588E-1,-3.6115706E-1,1.2090101E0,1.5035549E0,5.2319914E-1,1.3473712E0,-6.031029E-1,-1.4803982E-1,-1.0807226E0,-2.675649E-1,-6.28668E-1,-8.6889625E-1,-1.0307888E0,2.8161036E-3,-9.390429E-3,1.0073668E0,-5.479417E-1,-9.3948036E-1,1.5016066E-1,1.2038809E0,-8.533791E-1,-2.4123913E-1,1.837398E0,1.6430032E0,1.4845859E0,1.5664983E0,1.4861842E0,1.4367133E0,-1.6227027E0,-1.557745E0,-1.5137508E0,-1.564353E0,-1.4942298E0,-1.4858546E0,-1.4892735E0,-1.4838501E0,-1.4344488E0,-1.4839398E0,-1.4839882E0,-1.4840893E0,1.260794E-2,-3.6127314E-1,-7.4749273E-1,-1.0520489E-1,-7.798155E-2,-4.1685566E-1,4.7433433E-1,-8.547598E-2,-6.1770296E-1,-4.309984E-1,-4.5936254E-1,-1.4486623E-1,-7.083557E-1,-6.0196745E-1,-2.5369895E-1,-4.742169E-2,-3.2501453E-1,-4.94527E-1,-3.457832E-1,-6.683955E-1,-1.19054735E-1,-2.9114214E-1,-5.767455E-1,-8.53089E-1,1.5797469E-1,-1.5124509E-1,-2.713283E-1,-7.207203E-1,4.0453368E-1,3.3864297E-2,-1.1411692E0,-8.735246E-1,-1.2454174E0,-1.332593E0,-1.0159614E0,-5.921371E-1,-9.872376E-1,-1.1506977E0,-6.410254E-1,-7.987091E-1,-7.065395E-1,-1.0426426E0,-4.4536975E-1,-6.536657E-1,-6.5229505E-1,-1.0214369E0,-3.5594735E-1,-8.6709523E-1,-1.1335137E0,-5.6482965E-1,-6.4845824E-1,-8.580711E-1,-9.5175914E-2,-7.4712855E-1,-1.0360862E0,-1.3674303E0,5.5240864E-1,1.191567E0,-5.896996E-1,-1.239763E0,6.0686883E-2,-2.0815031E-1,7.212015E-1,-2.3161204E-1,1.154839E-1,-6.34724E-1,-1.2566525E0,-1.3947241E0,-8.531631E-1,-1.356512E0,-1.3166448E0,-1.3863232E0,-4.468427E-1,-9.453321E-1,1.8239822E0,1.0703164E0,-1.3168051E0,-1.2375915E0,-1.2336508E0,-1.1314887E0,-1.2064844E0,-1.346179E0,-1.392712E0,-1.4895198E0,-5.8900267E-1,-8.174102E-1,-2.7414575E-1,8.42662E-3,-1.502769E0,-1.2566842E0,-1.2744424E0,-1.1860715E0,-1.5894397E0,-1.5196067E0,-1.4401494E0,-1.4992063E0,-1.4426979E0,-1.3952018E0,-1.4547642E0,-1.3674271E0,-6.0356075E-1,-1.0634288E0,-9.565846E-1,-1.1779366E0,-1.0343133E0,-8.4350365E-1,1.2785271E-1,-5.8202136E-1,-9.800988E-1,-1.1228211E0,-8.110591E-1,-4.767916E-1,-1.2400175E0,-1.0404371E0,-5.3605556E-1,-9.96211E-1,-6.6627103E-1,1.5920302E-1,-4.0492994E-1,-8.09754E-1,-8.329342E-1,-1.1648256E0,-5.547907E-1,-1.0349058E0,-1.6578582E-1,5.483046E-1,-8.017118E-1,-1.0603309E0,-1.1219461E0,-1.277906E0,-6.9969183E-1,-4.1135204E-1,-1.2142587E0,-1.1647259E0,-5.14702E-1,-7.6155066E-1,1.2836478E0,5.5488545E-1,-8.661479E-1,-1.1367714E0,4.5852217E-1,-4.2193685E-2,1.4600605E0,1.0468154E0,-1.1264101E0,-1.3487784E0,-1.5008043E0,-1.4060279E0,-5.5893904E-1,-1.0638945E0,3.8671398E-1,-8.268177E-1,-1.3740546E0,-1.3262228E0,-1.4134316E0,-1.2926563E0,-1.4626081E0,-1.4052169E0,-1.538899E0,-1.4440073E0,-1.4243335E0,-1.1319609E0,-1.4274216E0,-1.5671014E0,-1.3807577E0,-1.4227108E0,-1.4682913E0,-1.3848926E0,-1.1885039E0,-8.048439E-1,-1.4253749E0,-1.0734267E0,-1.3079038E0,-1.0721519E0,-8.9957905E-1,-1.2394505E0,-1.2903665E0,-6.753806E-1,-1.1739819E0,-5.4497564E-1,1.7621254E0,1.2101985E0,-1.4357208E0,-1.2185026E0,-1.5744828E0,-1.5446628E0,-1.5786403E0,-1.5431451E0,-3.62654E-2,2.3226357E-1,-2.7503163E-1,-8.3853006E-1,4.0723944E-1,3.933858E-1,-1.6448379E-1,-4.5040682E-1,-7.057101E-1,-8.5720146E-1,-4.6932197E-1,-6.235269E-1,-1.0494608E-1,5.422305E-2,-4.473268E-1,-9.049474E-1,3.5187256E-1,-3.034159E-1,1.3429038E-1,-5.660306E-1,8.6530775E-2,-1.9011317E-1,1.4362685E-1,3.7603706E-1,-2.6648995E-1,-4.4512412E-1,-3.6286616E-1,-6.273646E-1,-3.5909155E-1,-8.6635953E-1,-6.838872E-1,-9.311251E-1,-7.4421905E-2,-3.431215E-1,-3.5760593E-1,-7.370442E-1,-7.2362393E-1,-8.262851E-1,-9.35213E-1,-1.1795869E0,-4.0167645E-1,-5.908114E-1,-7.25096E-1,-8.9086705E-1,-2.6737067E-1,-6.9704545E-1,-7.4700063E-1,-9.39532E-1,2.9534477E-1,1.2867644E-1,1.2636925E-2,-4.9970096E-1,-4.99862E-1,-7.684413E-1,-9.263807E-1,-6.5791583E-1,-2.1787171E-1,-4.5713434E-1,-5.1741725E-1,-6.68447E-1,1.1051059E0,9.368678E-1,1.3714435E0,1.2172954E0,9.3204933E-1,6.3435024E-1,1.2833477E0,9.74155E-1,1.3810135E-1,-1.2198261E-2,6.297E-1,-2.8092366E-2,-6.589601E-2,-2.873365E-1,1.2668799E-1,2.8342178E-1,4.5416985E-2,-4.8366135E-1,-2.4797723E-1,5.10962E-1,2.8751802E-1,-4.1826993E-1,5.8074826E-1,4.6887094E-1,-3.690554E-1,-6.569233E-1,-5.794414E-1,1.1324943E-1,-8.1725687E-1,-1.1182669E0,-6.592875E-1,-3.2898307E-2,-9.2106307E-1,-5.603028E-1,-8.8365024E-1,-1.140281E0,2.0281617E-1,-3.2750434E-1,1.08748555E-1,-5.6331515E-1,-1.0661932E0,-4.9075338E-1,-2.287671E-1,3.0540344E-1,-5.040573E-1,1.6645211E-1,-1.4965717E0,-1.5392162E0,-1.6002105E0,-1.5482947E0,-1.4876032E0,-1.4968232E0,-1.4859563E0,-1.4857496E0,1.2116897E-1,-9.821794E-2,-4.6037954E-1,-2.618347E-1,-8.545615E-1,-6.058398E-1,2.8946022E-2,-2.161953E-1,-6.078147E-1,-8.4378785E-1,-5.604047E-1,-3.971802E-1,-4.3279842E-1,-7.534729E-1,-8.4069796E-2,-5.451673E-1,-7.619487E-1,-6.254793E-1,-6.59782E-1,-5.1513135E-1,-2.679456E-1,-2.1630529E-1,-1.705956E-1,1.240505E-1,-3.1246084E-1,-6.870899E-1,-6.2523013E-1,-4.5874152E-1,-3.693931E-1,-2.9803628E-1,-6.996438E-1,-4.4311452E-1,1.5570582E-1,-1.7310326E-1,8.254057E-2,-3.7109956E-1,-6.685012E-1,-9.033518E-1,5.565854E-1,3.35548E-2,1.9998042E-1,-2.4813853E-1,-2.1947847E-1,-5.4331976E-1,-4.7930297E-1,-8.435384E-1,-1.1256261E0,-1.2505643E0,-9.751972E-1,-7.848846E-1,-1.2304058E0,-1.2741349E0,-1.3230877E0,-1.3609885E0,-6.1459243E-1,-5.696146E-1,-5.827592E-1,-8.343614E-1,-7.3384124E-1,-8.415455E-1,-5.058175E-1,-8.336385E-1,-1.0608922E0,-7.867787E-1,-1.01058125E-1,-6.461171E-1,-6.3438433E-1,-7.546187E-1,-3.6101514E-1,-8.099054E-1,-8.814145E-1,-1.101084E0,-5.8764476E-1,-2.3962969E-1,-9.0633035E-1,-7.3081136E-1,-1.0738236E0,-1.2147439E0,-5.971269E-1,-4.7701746E-1,-7.9396915E-1,-5.863393E-1,-8.1248087E-1,-9.950647E-1,-3.2792348E-1,1.0150086E-2,-7.211332E-1,-1.0934383E0,-1.2519864E0,-9.512515E-1,-1.2324188E0,-1.415215E0,-1.177644E0,-2.8361067E-1,-1.2533976E0,-1.2190135E0,9.3701415E-2,2.1870772E-4,-2.637344E-1,-7.36259E-2,6.7499787E-1,1.3709153E0,4.7027428E-2,1.0563747E0,-5.5802363E-1,-1.1183352E0,-1.1305486E0,-1.3960593E0,-1.4753104E0,-1.3777531E0,-1.129326E0,-7.7347714E-1,-1.1695104E0,-1.4132122E0,-1.2279495E0,-1.3684391E0,-1.438586E0,-1.3218664E0,-1.1523395E0,-3.2085887E-1,-8.665223E-1,-1.2920212E0,1.1013875E0,1.0432037E0,-1.4118456E0,-1.2958592E0,-1.382692E0,-1.2109638E0,-1.204537E0,-1.274213E0,-1.2133137E0,-1.0792544E0,-1.376697E0,-1.3162296E0,-1.41938E0,-1.1903735E0,-1.5274725E0,-1.3915887E0,-9.023499E-1,-7.265934E-1,-1.3605806E-1,-4.961362E-1,-1.2358556E-1,1.2279928E-1,-1.5507108E0,-1.4570118E0,-1.2689558E0,-1.4434352E0,-1.1612204E0,-1.379311E0,-1.436746E0,-1.4871293E0,-1.5558841E0,-1.4846013E0,-1.3343436E0,-1.4596198E0,-1.4287012E0,-1.3808821E0,-1.4133636E0,-1.4635464E0,-1.3983531E0,-1.3282912E0,-6.954347E-1,-4.78698E-1,-8.598275E-1,-1.1067683E0,-9.1988784E-1,-1.0707633E0,-7.27144E-1,-1.2623866E0,-1.2117095E0,-9.854941E-1,-1.0187427E0,-7.724351E-1,-4.559396E-1,8.9088154E-1,-8.1289583E-1,-5.1161116E-1,-7.928367E-1,-1.1273376E0,-1.0377872E0,-1.1542686E0,-8.841822E-1,-5.1162213E-1,-1.5429416E-1,-5.6084234E-1,-1.2840835E0,-1.1369934E0,-1.1535499E0,-9.642807E-1,-8.828993E-1,-3.7708323E-2,-1.1782469E0,-8.123325E-1,-5.4287136E-1,-7.6282185E-1,-8.793622E-2,4.929408E-1,-1.5185755E-1,-4.8688647E-1,-9.3454987E-1,-6.021988E-1,-7.222107E-1,-9.8681796E-1,-1.0464276E0,-1.2848078E0,-6.2172246E-1,-1.861102E-1,-9.3299735E-1,-1.3533565E0,-1.4091574E-2,-2.2056806E-1,-1.2423667E0,-9.051811E-1,-9.917948E-1,-6.040994E-1,-7.315017E-1,-1.8358923E-1,-4.7868393E-2,8.3535707E-1,7.527618E-1,1.3582157E0,-1.1163069E0,-1.3794028E0,-1.3627722E0,-1.2967854E0,-1.2076864E0,-1.4196305E0,-1.0133452E0,2.700726E-1,-9.175552E-1,-1.151202E0,1.8500265E-1,8.619314E-1,-6.9436646E-1,-9.0292996E-1,-1.4088591E0,-1.3575108E0,-1.3233709E0,-1.4509083E0,-1.4368213E0,-1.3806683E0,-1.1742159E0,-1.4490396E0,-1.4296664E0,-1.4942447E0,-1.3617798E0,-1.4595809E0,-1.4339113E0,-1.1651567E0,-1.209499E0,-1.3828502E0,-1.3538021E0,-1.4289148E0,-1.5050212E0,-1.4168714E0,-1.365457E0,-1.4930279E0,-1.3152783E0,-1.0885762E0,-8.438364E-1,-1.1394492E0,-1.3957349E0,-1.279036E0,-9.243917E-1,-1.1750736E0,-7.3930734E-1,-1.0348816E0,-9.37915E-1,-1.2758108E0,-1.3437713E0,-1.2535907E0,-1.2615848E0,1.3070053E-1,-7.404585E-1,-1.212883E0,-4.8177385E-1,-1.3093139E0,1.6659942E0,1.8436736E0,-1.3482178E0,-1.4596825E0,-1.1693269E0,-1.5226786E0,-1.5475389E0,-1.619047E0,-9.145453E-1,-7.583357E-1,-9.56745E-1,-6.6787595E-1,-5.5279416E-1,-3.9229363E-1,-7.046608E-1,-5.3852814E-1,-1.9571304E-1,-8.153398E-3,-1.7140336E-2,-4.9469653E-1,3.8231632E-1,-1.2627871E-2,3.125013E-1,-2.0535174E-1,-4.7045705E-1,-6.6974473E-1,-3.031567E-2,1.4464061E-1,-2.962656E-1,-1.251559E-1,5.479951E-1,2.1586393E-1,-2.8527814E-1,4.5569085E-2,-2.645283E-1,-6.03205E-1,-5.1509106E-1,-2.6508057E-1,-4.0202805E-1,-7.929121E-1,-5.9860003E-1,-1.7736095E-1,-9.2266154E-1,-5.206959E-1,-1.0316715E0,-8.417123E-1,-2.0888169E-1,-4.949233E-1,-5.243698E-1,-2.3665883E-1,-5.181659E-1,-9.127838E-1,-7.9317385E-1,-6.26606E-1,-7.7566785E-1,-9.287632E-1,-1.1197739E0,-7.5195885E-1,-1.139283E0,-1.38761E0,-5.235941E-1,-3.0320728E-1,-6.641664E-1,-2.2930346E-1,-6.539002E-1,-9.596138E-1,-7.7311146E-1,-9.881555E-1,-4.3859208E-1,-1.56275E-1,-6.539027E-1,-8.873034E-1,-8.945313E-1,-6.177717E-1,-3.4885954E-2,4.5863715E-1,-2.2361739E-1,2.4045196E-1,-4.5046008E-1,-6.949166E-1,-4.645244E-1,-8.747875E-1,-6.9395113E-1,-1.0060868E0,-4.5850766E-1,-7.2754276E-1,-3.4260136E-1,-1.2703925E-1,-6.110687E-1,-3.6893797E-1,-4.429605E-1,-5.538254E-1,-3.5662135E-1,-8.489931E-1,1.2116554E0,1.0001595E0,7.935021E-1,1.0404323E0,4.0185115E-1,7.979362E-1,9.6008874E-2,1.9790933E-1,-4.322554E-2,1.884146E-1,4.0346363E-1,7.4000907E-1,-1.6361254E-1,5.07106E-1,-3.6515835E-1,1.1188466E-1,4.7658242E-2,3.234738E-1,3.207191E-1,5.927707E-3,-8.616246E-1,3.2188657E-1,-8.522379E-1,-1.4700899E-1,-4.2375162E-1,2.6398143E-1,-5.6487057E-2,-6.655207E-1,-7.207806E-1,-3.4549624E-1,2.1369626E-1,-4.1063413E-1,-1.0550526E0,-3.153632E-1,-1.0066147E0,-1.1571434E0,-5.837163E-1,-1.1263275E0,-9.9888855E-1,-6.252413E-1,-6.6624904E-1,2.8188446E-1,-9.226032E-1,-4.8642993E-1,-1.0310459E0,-1.2062166E0,5.3984425E-3,9.7546643E-1,-1.3674879E-1,-6.6889465E-1,-5.1803756E-1,8.0074567E-1,-7.412216E-1,-5.339065E-1,-8.1156754E-1,-1.1720134E0,-6.86275E-1,-3.0683237E-1,-4.912417E-1,-1.02297015E-1,5.063169E-1,3.1721964E-2,-6.584038E-1,-1.6926914E-1,-1.3305116E-1,2.7788976E-1,-1.5081779E0,-1.488741E0,-1.5822657E0,-1.5030206E0,-1.5585574E0,-1.5291828E0,-1.5083623E0,-1.4921789E0],"categories":[],"categories_nodes":[],"categories_segments":[],"categories_sizes":[],"default_left":[1,1,1,1,1,1,1,1,1,1,1,1,1,1,1,1,1,1,1,1,1,1,1,1,1,1,1,1,1,1,1,1,1,1,1,1,1,1,1,1,1,1,1,1,1,1,1,1,1,1,1,1,1,1,1,1,1,1,1,0,1,1,1,1,1,1,1,1,1,1,1,1,1,1,1,1,1,1,1,1,1,1,1,1,1,1,1,1,1,1,1,1,1,1,1,1,1,1,1,1,1,1,1,1,1,1,1,1,1,0,0,1,1,1,1,1,1,0,0,1,1,1,1,0,1,1,1,1,1,1,1,1,1,1,1,1,1,1,1,1,1,1,1,1,1,1,1,1,1,1,1,1,1,1,1,1,1,1,1,1,1,1,1,1,1,1,1,1,1,1,0,1,1,1,1,1,1,1,1,1,1,1,1,1,1,1,1,0,0,1,1,1,1,1,0,1,1,1,1,1,1,1,1,1,1,1,1,1,1,0,1,1,1,0,0,1,1,1,1,1,1,1,1,1,1,0,1,1,1,1,1,1,0,1,0,1,1,0,0,1,1,1,1,1,1,0,1,1,0,1,1,1,1,1,1,0,0,1,0,1,1,1,1,1,1,1,1,1,1,1,1,0,1,1,1,1,1,0,1,1,1,1,1,1,0,0,0,1,1,1,1,1,1,1,1,0,0,1,1,1,1,0,0,1,1,1,1,1,1,1,1,1,1,1,1,1,0,0,0,1,1,1,1,1,1,0,1,0,0,0,0,1,1,1,1,1,1,1,1,1,1,0,1,1,1,0,1,1,0,1,1,1,1,1,1,1,0,0,1,1,0,1,1,1,1,1,1,1,1,1,1,1,1,1,1,1,1,1,1,1,1,1,1,1,1,1,1,1,1,1,1,1,1,1,1,1,1,1,1,0,0,0,1,1,1,0,0,1,0,1,1,1,0,1,1,1,0,1,0,1,1,1,0,0,1,0,0,0,0,0,0,0,0,1,1,1,1,0,0,0,0,0,0,1,1,1,0,1,0,0,0,1,1,1,1,1,1,1,1,1,1,1,1,1,1,0,1,1,1,1,1,0,0,1,1,1,1,0,1,0,0,1,1,1,1,1,1,1,1,1,1,1,1,1,1,1,1,1,1,0,0,1,1,1,1,1,0,1,1,1,1,1,1,1,1,1,1,0,1,1,1,1,1,0,1,1,1,0,1,1,1,1,0,1,1,0,0,1,1,1,1,1,1,1,1,1,1,1,1,1,1,1,1,1,1,1,1,1,1,1,1,1,1,1,1,1,1,1,0,0,1,0,0,1,1,0,0,0,0,0,1,0,0,0,0,0,1,1,1,0,1,1,1,1,1,1,1,1,1,1,1,0,0,0,0,1,0,1,1,1,1,1,0,0,1,1,1,1,1,1,1,1,1,1,0,1,1,1,0,0,0,0,0,0,1,0,0,0,0,1,0,1,1,1,0,1,0,1,0,1,1,1,1,0,1,1,1,1,1,1,0,1,1,0,1,1,1,1,1,1,1,1,1,1,1,1,1,1,0,0,1,1,0,1,1,1,1,1,1,1,1,1,0,0,0,1,1,0,0,1,1,1,0,1,1,1,1,1,0,0,0,0,1,0,0,1,1,1,1,1,1,1,0,1,1,1,1,1,1,1,1,1,1,1,1,1,1,1,1,0,1,0,1,0,0,0,0,0,0,0,0,0,0,0,0,0,0,0,0,0,0,0,0,0,0,0,0,0,0,0,0,0,0,0,0,0,0,0,0,0,0,0,0,0,0,0,0,0,0,0,0,0,0,0,0,0,0,0,0,0,0,0,0,0,0,0,0,0,0,0,0,0,0,0,0,0,0,0,0,0,0,0,0,0,0,0,0,0,0,0,0,0,0,0,0,0,0,0,0,0,0,0,0,0,0,0,0,0,0,0,0,0,0,0,0,0,0,0,0,0,0,0,0,0,0,0,0,0,0,0,0,0,0,0,0,0,0,0,0,0,0,0,0,0,0,0,0,0,0,0,0,0,0,0,0,0,0,0,0,0,0,0,0,0,0,0,0,0,0,0,0,0,0,0,0,0,0,0,0,0,0,0,0,0,0,0,0,0,0,0,0,0,0,0,0,0,0,0,0,0,0,0,0,0,0,0,0,0,0,0,0,0,0,0,0,0,0,0,0,0,0,0,0,0,0,0,0,0,0,0,0,0,0,0,0,0,0,0,0,0,0,0,0,0,0,0,0,0,0,0,0,0,0,0,0,0,0,0,0,0,0,0,0,0,0,0,0,0,0,0,0,0,0,0,0,0,0,0,0,0,0,0,0,0,0,0,0,0,0,0,0,0,0,0,0,0,0,0,0,0,0,0,0,0,0,0,0,0,0,0,0,0,0,0,0,0,0,0,0,0,0,0,0,0,0,0,0,0,0,0,0,0,0,0,0,0,0,0,0,0,0,0,0,0,0,0,0,0,0,0,0,0,0,0,0,0,0,0,0,0,0,0,0,0,0,0,0,0,0,0,0,0,0,0,0,0,0,0,0,0,0,0,0,0,0,0,0,0,0,0,0,0,0,0,0,0,0,0,0,0,0,0,0,0,0,0,0,0,0,0,0,0,0,0,0,0,0,0,0,0,0,0,0,0,0,0,0,0,0,0,0,0,0,0,0,0,0,0,0,0,0,0,0,0,0,0,0,0,0,0,0],"id":1,"left_children":[1,3,5,7,9,11,13,15,17,19,21,23,25,27,29,31,33,35,37,39,41,43,45,47,49,51,53,55,57,59,61,63,65,67,69,71,73,75,77,79,81,83,85,87,89,91,93,95,97,99,101,103,105,107,109,111,113,115,117,-1,119,121,123,125,127,129,131,133,135,137,139,141,143,145,147,149,151,153,155,157,159,161,163,165,167,169,171,173,175,177,179,181,183,185,187,189,191,193,195,197,199,201,203,205,207,209,211,213,215,-1,-1,217,219,221,223,225,227,-1,-1,229,231,233,235,-1,237,239,241,243,245,247,249,251,253,255,257,259,261,263,265,267,269,271,273,275,277,279,281,283,285,287,289,291,293,295,297,299,301,303,305,307,309,311,313,315,317,319,321,323,325,327,-1,329,331,333,335,337,339,341,343,345,347,349,351,353,355,357,359,-1,-1,361,363,365,367,369,-1,371,373,375,377,379,381,383,385,387,389,391,393,395,397,-1,399,401,403,-1,-1,405,407,409,411,413,415,417,419,421,423,-1,425,427,429,431,433,435,-1,437,-1,439,441,-1,-1,443,445,447,449,451,453,-1,455,457,-1,459,461,463,465,467,469,-1,-1,471,-1,473,475,477,479,481,483,485,487,489,491,493,495,-1,497,499,501,503,505,-1,507,509,511,513,515,517,-1,-1,-1,519,521,523,525,527,529,531,533,-1,-1,535,537,539,541,-1,-1,543,545,547,549,551,553,555,557,559,561,563,565,567,-1,-1,-1,569,571,573,575,577,579,-1,581,-1,-1,-1,-1,583,585,587,589,591,593,595,597,599,601,-1,603,605,607,-1,609,611,-1,613,615,617,619,621,623,625,-1,-1,627,629,-1,631,633,635,637,639,641,643,645,647,649,651,653,655,657,659,661,663,665,667,669,671,673,675,677,679,681,683,685,687,689,691,693,695,697,699,701,703,705,-1,-1,-1,707,709,711,-1,-1,713,-1,715,717,719,-1,721,723,725,-1,727,-1,729,731,733,-1,-1,735,-1,-1,-1,-1,-1,-1,-1,-1,737,739,741,743,-1,-1,-1,-1,-1,-1,745,747,749,-1,751,-1,-1,-1,753,755,757,759,761,763,765,767,769,771,773,775,777,779,-1,781,783,785,787,789,-1,-1,791,793,795,797,-1,799,-1,-1,801,803,805,807,809,811,813,815,817,819,821,823,825,827,829,831,833,835,-1,-1,837,839,841,843,845,-1,847,849,851,853,855,857,859,861,863,865,-1,867,869,871,873,875,-1,877,879,881,-1,883,885,887,889,-1,891,893,-1,-1,895,897,899,901,903,905,907,909,911,913,915,917,919,921,923,925,927,929,931,933,935,937,939,941,943,945,947,949,951,953,955,-1,-1,957,-1,-1,959,961,-1,-1,-1,-1,-1,963,-1,-1,-1,-1,-1,965,967,969,-1,971,973,975,977,979,981,983,985,987,989,991,-1,-1,-1,-1,993,-1,995,997,999,1001,1003,-1,-1,1005,1007,1009,1011,1013,1015,1017,1019,1021,1023,-1,1025,1027,1029,-1,-1,-1,-1,-1,-1,1031,-1,-1,-1,-1,1033,-1,1035,1037,1039,-1,1041,-1,1043,-1,1045,1047,1049,1051,-1,1053,1055,1057,1059,1061,1063,-1,1065,1067,-1,1069,1071,1073,1075,1077,1079,1081,1083,1085,1087,1089,1091,1093,1095,-1,-1,1097,1099,-1,1101,1103,1105,1107,1109,1111,1113,1115,1117,-1,-1,-1,1119,1121,-1,-1,1123,1125,1127,-1,1129,1131,1133,1135,1137,-1,-1,-1,-1,1139,-1,-1,1141,1143,1145,1147,1149,1151,1153,-1,1155,1157,1159,1161,1163,1165,1167,1169,1171,1173,1175,1177,1179,1181,1183,1185,-1,1187,-1,1189,-1,-1,-1,-1,-1,-1,-1,-1,-1,-1,-1,-1,-1,-1,-1,-1,-1,-1,-1,-1,-1,-1,-1,-1,-1,-1,-1,-1,-1,-1,-1,-1,-1,-1,-1,-1,-1,-1,-1,-1,-1,-1,-1,-1,-1,-1,-1,-1,-1,-1,-1,-1,-1,-1,-1,-1,-1,-1,-1,-1,-1,-1,-1,-1,-1,-1,-1,-1,-1,-1,-1,-1,-1,-1,-1,-1,-1,-1,-1,-1,-1,-1,-1,-1,-1,-1,-1,-1,-1,-1,-1,-1,-1,-1,-1,-1,-1,-1,-1,-1,-1,-1,-1,-1,-1,-1,-1,-1,-1,-1,-1,-1,-1,-1,-1,-1,-1,-1,-1,-1,-1,-1,-1,-1,-1,-1,-1,-1,-1,-1,-1,-1,-1,-1,-1,-1,-1,-1,-1,-1,-1,-1,-1,-1,-1,-1,-1,-1,-1,-1,-1,-1,-1,-1,-1,-1,-1,-1,-1,-1,-1,-1,-1,-1,-1,-1,-1,-1,-1,-1,-1,-1,-1,-1,-1,-1,-1,-1,-1,-1,-1,-1,-1,-1,-1,-1,-1,-1,-1,-1,-1,-1,-1,-1,-1,-1,-1,-1,-1,-1,-1,-1,-1,-1,-1,-1,-1,-1,-1,-1,-1,-1,-1,-1,-1,-1,-1,-1,-1,-1,-1,-1,-1,-1,-1,-1,-1,-1,-1,-1,-1,-1,-1,-1,-1,-1,-1,-1,-1,-1,-1,-1,-1,-1,-1,-1,-1,-1,-1,-1,-1,-1,-1,-1,-1,-1,-1,-1,-1,-1,-1,-1,-1,-1,-1,-1,-1,-1,-1,-1,-1,-1,-1,-1,-1,-1,-1,-1,-1,-1,-1,-1,-1,-1,-1,-1,-1,-1,-1,-1,-1,-1,-1,-1,-1,-1,-1,-1,-1,-1,-1,-1,-1,-1,-1,-1,-1,-1,-1,-1,-1,-1,-1,-1,-1,-1,-1,-1,-1,-1,-1,-1,-1,-1,-1,-1,-1,-1,-1,-1,-1,-1,-1,-1,-1,-1,-1,-1,-1,-1,-1,-1,-1,-1,-1,-1,-1,-1,-1,-1,-1,-1,-1,-1,-1,-1,-1,-1,-1,-1,-1,-1,-1,-1,-1,-1,-1,-1,-1,-1,-1,-1,-1,-1,-1,-1,-1,-1,-1,-1,-1,-1,-1,-1,-1,-1,-1,-1,-1,-1,-1,-1,-1,-1,-1,-1,-1,-1,-1,-1,-1,-1,-1,-1,-1,-1,-1,-1,-1,-1,-1,-1,-1,-1,-1,-1,-1,-1,-1,-1,-1,-1,-1,-1,-1,-1,-1,-1,-1,-1,-1,-1,-1,-1,-1,-1,-1,-1,-1,-1,-1,-1,-1,-1,-1,-1,-1,-1],"loss_changes":[4.0111016E3,1.4353281E3,1.4313779E3,1.878875E3,7.5698047E2,1.5589808E3,1.6324858E3,5.808535E2,1.1195059E3,3.3741602E2,4.378047E2,3.3676196E2,9.960837E1,1.2381445E3,5.083008E-1,1.7511401E2,1.4030518E2,7.6282983E2,7.739453E1,2.6364844E2,1.4953482E2,2.2525586E2,3.5091504E2,7.994667E1,8.666846E1,1.4061314E2,8.5378586E1,3.1150293E2,9.802307E0,6.262207E-2,1.1474609E-2,3.4215942E1,2.5537506E1,6.2264404E1,6.887549E1,7.4891736E2,3.6939404E2,4.2583984E1,1.5024414E0,2.3517188E2,8.118872E1,1.0584375E2,2.6186194E2,3.4343555E2,4.3984375E0,5.561216E2,1.0238037E0,1.7454575E1,4.5484688E1,2.815271E1,3.138208E1,1.6617963E2,4.946202E1,7.006531E0,5.601172E0,9.3416016E1,2.1514261E2,2.48172E0,2.115326E-1,0E0,2.9052734E-1,1.953125E-3,3.5003662E-2,2.9652267E1,2.0633911E1,1.0262253E1,4.1890457E1,9.550533E0,5.647583E0,2.4241943E1,3.9934326E1,7.183508E1,9.707565E1,1.0796777E2,3.425675E2,9.428223E0,2.1659827E2,3.0944824E-1,4.1748047E-1,1.6889746E2,3.47959E1,8.780432E1,1.7970924E1,1.3454285E1,6.3509438E1,1.876831E0,2.4179443E1,3.2244824E2,1.6386719E0,2.8725586E0,4.7315063E0,2.2049316E1,3.502085E2,7.495117E-2,1.2207031E-4,7.23989E0,8.410706E0,1.6607883E1,3.2842545E1,7.8927155E0,1.3178833E1,2.2788803E1,4.605188E1,3.3746033E0,5.6344162E1,2.5848846E0,1.9825392E1,9.1729736E-1,9.987564E0,0E0,0E0,1.2121484E2,2.7266357E1,1.291759E2,4.7816868E1,2.2717285E-1,7.1502686E-2,0E0,0E0,9.3688965E-2,4.5776367E-3,2.4414062E-4,1.2573242E-2,0E0,7.6293945E-6,1.4396584E1,7.4061074E0,1.904364E1,6.2213135E0,3.8740406E0,9.07196E0,6.2243393E1,6.426743E1,8.451267E0,3.2497303E1,8.889038E0,2.9915466E0,1.7292725E1,7.9139404E0,2.9745605E1,8.477051E0,6.1141968E1,9.430258E1,5.7018387E1,5.6886894E1,9.084082E1,9.669025E1,1.9697876E0,3.9672852E-4,5.6845703E0,9.013672E-1,1.5411736E1,3.656372E0,3.755188E-2,3.9831543E-1,4.2358398E-1,9.9853516E-2,1.2678662E2,1.718252E2,8.05459E1,2.6294922E1,1.890173E1,3.5924316E1,1.8538769E1,7.278023E0,1.5233612E0,1.0537598E1,7.80634E1,1.6442158E1,2.020111E0,0E0,5.669403E-1,3.2371048E1,1.9893555E1,7.7001465E1,1.3110352E0,2.3284912E-1,9.829025E-1,1.1152344E0,3.331543E0,4.155945E0,4.7927246E0,3.201172E1,1.4933999E3,4.1833496E0,1.2487793E-1,1.4498901E-1,0E0,0E0,1.3711676E1,1.0665621E1,5.911957E0,1.0643539E1,1.2746999E1,0E0,1.5725899E1,6.010376E0,5.0340576E0,3.149334E0,1.892749E1,1.05173645E1,1.5041748E1,6.9146466E0,2.0037659E1,4.1830383E1,1.8609161E0,6.0648804E0,7.691339E1,5.0791687E1,0E0,1.580864E0,2.1927832E1,1.2953682E1,0E0,0E0,1.231575E0,1.0477684E1,3.9985474E1,2.0282593E1,3.0416748E1,2.5085632E1,3.92017E1,3.0185547E1,2.7809662E1,1.0983164E1,0E0,5.0201416E-1,7.319641E-2,3.2188416E-2,4.649353E-2,1.2753296E-1,2.2277832E-3,0E0,4.4250488E-4,0E0,3.4729004E-2,1.2207031E-4,0E0,0E0,3.5019279E0,8.347191E0,2.8539176E0,4.587767E0,3.0950623E0,1.2121948E1,0E0,3.939392E0,2.9345856E0,0E0,6.3332825E0,4.7084885E0,1.13966675E1,1.865921E0,1.1758276E1,1.5692104E1,0E0,0E0,1.7963133E0,0E0,8.535339E0,5.4611206E-1,3.4014893E0,5.18219E-1,1.1004395E1,1.2693726E1,6.2753906E0,4.7202682E0,3.6533813E1,1.8543701E1,1.5076172E1,3.261606E1,0E0,1.7899414E1,4.498436E0,1.6560364E1,2.4583478E0,2.3804016E1,0E0,7.916287E1,7.340576E0,3.4500183E1,2.3434448E-1,3.358046E1,1.0184952E1,0E0,0E0,0E0,1.234375E0,2.9941406E0,3.8998413E-1,6.0266113E-1,9.6522903E-1,3.4541512E0,1.691803E0,1.4384766E0,0E0,0E0,5.102539E-2,3.0249023E-1,4.6240234E-1,2.9742432E-1,0E0,0E0,5.278076E1,1.0788208E1,3.3841797E1,3.5494843E1,9.216309E0,1.1282776E1,7.088867E0,7.332512E0,3.104488E1,7.300598E0,1.1919922E1,2.3976196E1,9.515118E0,0E0,0E0,0E0,1.0519104E0,3.5229492E-1,4.5333405E0,2.4742126E-2,8.3971214E-1,1.3848114E1,0E0,1.0825424E0,0E0,0E0,0E0,0E0,3.3377135E0,2.6384048E0,6.103125E1,2.8094482E-1,1.8643335E2,2.2968158E2,1.7099609E0,1.0070801E0,1.9290161E-1,1.308136E-1,0E0,1.1052399E0,4.8217773E-1,9.692383E-1,0E0,4.9523926E-1,2.8584595E0,0E0,3.9385376E0,2.592102E0,4.8456055E1,1.7088074E1,1.0164789E2,8.811462E0,4.2877197E0,0E0,0E0,1.663208E-2,1.5319824E-2,0E0,7.2293437E-1,4.445013E0,2.0098686E-3,1.0334482E0,5.6910706E-1,1.2214203E0,3.992583E-1,4.315773E0,1.1505373E1,1.9120136E1,1.8623915E1,9.3634224E-1,3.9611893E0,3.8881187E0,5.2204247E0,1.9600143E0,1.57266E0,5.1314545E0,3.4127808E0,3.7095642E0,2.2668304E0,1.4391632E0,3.2202637E1,7.2270966E-1,5.1180387E-1,5.0895042E0,1.1956329E1,1.1243164E1,1.7380203E1,1.0044678E1,4.8732758E-1,3.1497192E-1,2.4679642E0,1.3499908E0,2.0303974E0,1.5178345E1,4.6657057E0,7.8254967E0,0E0,0E0,0E0,4.715282E0,7.525037E0,9.281792E0,0E0,0E0,1.5541267E-1,0E0,6.721387E1,2.2582443E1,6.1834717E0,0E0,1.4269653E1,2.6010864E1,1.3000671E1,0E0,1.1763409E1,0E0,1.8673828E1,1.2529526E1,3.9476948E1,0E0,0E0,2.1940407E1,0E0,0E0,0E0,0E0,0E0,0E0,0E0,0E0,4.862976E-2,5.1986694E-2,2.2888184E-3,7.6293945E-6,0E0,0E0,0E0,0E0,0E0,0E0,4.933685E-1,6.3453484E-1,2.656433E0,0E0,1.7942483E0,0E0,0E0,0E0,2.0395508E0,4.304695E-1,3.8030472E0,3.9863439E0,4.043762E0,2.828827E0,2.401352E-1,1.7197837E0,4.292137E0,1.3447876E0,6.989193E-2,1.178154E0,8.201843E0,3.7923492E1,0E0,1.673111E0,3.221328E1,5.1623077E0,3.8570023E0,3.2182045E0,0E0,0E0,7.8808594E-1,1.4453964E0,7.0114136E-2,3.4744263E-2,0E0,2.0359993E-2,0E0,0E0,5.8383026E0,8.419556E0,3.8155823E0,2.1098328E0,1.1461491E1,2.2037964E0,2.6494274E0,9.6637726E-1,4.7069283E0,3.7502441E0,2.80365E-1,1.943872E1,4.722122E0,6.2443237E0,2.236491E0,4.3477783E0,1.1627808E1,1.4152527E0,0E0,0E0,2.8854511E1,1.4671326E-2,1.2245169E-1,5.7096076E-1,1.1430832E1,0E0,5.253997E1,6.3044815E0,2.3817139E1,7.355957E-1,1.9693237E1,1.7029724E0,7.130432E-1,2.3596191E-1,4.4093636E1,5.0746155E0,0E0,3.686142E-2,2.079956E0,9.363098E-1,2.4943848E0,1.4185486E0,0E0,1.6003418E-1,1.6259766E0,3.0387878E-1,0E0,3.4515953E-1,5.5075436E0,8.602964E-1,2.04422E-1,0E0,6.845703E-1,1.1786804E0,0E0,0E0,6.274414E-2,9.2163086E-2,4.4552612E-1,6.2597656E-1,1.0089111E-1,5.4893494E-2,4.1604248E1,2.3650208E0,3.517517E0,1.1362305E1,5.1845703E1,1.3703735E1,3.485953E1,1.1459274E1,1.4390991E1,9.087402E0,1.6217682E1,3.1691837E0,8.70874E0,1.6898804E0,1.1678808E1,2.3778076E0,7.7734184E-1,1.2455362E1,5.563614E0,1.383667E0,2.4432373E1,1.6627045E0,2.1150513E1,3.8417282E0,1.3176627E0,0E0,0E0,1.2418823E0,0E0,0E0,9.484985E0,4.7362823E0,0E0,0E0,0E0,0E0,0E0,1.3395546E1,0E0,0E0,0E0,0E0,0E0,3.7750435E0,1.1109375E1,1.2541504E0,0E0,1.0519409E0,3.507011E2,4.352832E1,1.6580835E1,1.5987549E1,1.2724609E0,4.0161133E-1,5.760498E-1,1.4080353E0,1.0533142E-1,3.2867432E-1,0E0,0E0,0E0,0E0,1.5743408E0,0E0,7.626953E-1,3.178711E-1,2.24823E-1,3.7228394E-1,2.5233765E0,0E0,0E0,3.7464905E0,1.0940552E0,7.952118E-1,3.8924805E1,6.001831E0,1.0666504E0,2.328674E1,5.1504517E0,7.81705E1,2.2130737E0,0E0,4.628601E-1,2.3104095E0,8.140564E-2,0E0,0E0,0E0,0E0,0E0,0E0,2.5569344E-1,0E0,0E0,0E0,0E0,1.6010361E0,0E0,1.4588013E0,4.5788956E-1,3.9926845E-1,0E0,1.0129234E1,0E0,2.9721947E0,0E0,9.831749E0,5.084667E-1,2.1018245E0,7.845989E0,0E0,1.6898365E0,5.162113E0,4.1255894E0,2.0339146E0,3.4946556E0,3.6726532E0,0E0,3.906704E0,4.2380905E-1,0E0,1.3345823E0,2.2181158E0,2.0283566E0,4.394562E0,3.3405457E0,3.7068176E0,1.2021027E0,1.5554123E0,3.2891922E0,2.076767E0,1.0363083E0,1.2867504E1,1.9291763E0,8.261471E-1,0E0,0E0,3.3243482E0,2.1955879E0,0E0,5.1901245E0,7.7385254E0,7.303253E0,3.5841827E0,7.414274E0,7.688904E0,4.1942444E0,3.4655426E1,4.6338654E-1,0E0,0E0,0E0,8.60096E-1,2.0612984E0,0E0,0E0,3.6247063E-1,1.4888977E0,1.7453888E1,0E0,9.034485E0,7.204546E0,8.892264E0,7.4446526E0,2.3485773E1,0E0,0E0,0E0,0E0,2.7106201E1,0E0,0E0,3.454196E1,2.2394897E1,2.4987698E0,6.5656996E0,9.30566E0,2.375E0,2.6259216E1,0E0,3.1819702E1,2.0847046E1,5.32724E0,3.3324585E0,1.5944283E1,4.540884E0,1.8352116E1,9.456238E0,4.6300354E0,1.7449322E0,6.474142E0,2.61762E1,6.433563E0,2.6788101E0,6.0272217E-3,6.976318E-2,0E0,1.222229E-2,0E0,5.126953E-3,0E0,0E0,0E0,0E0,0E0,0E0,0E0,0E0,0E0,0E0,0E0,0E0,0E0,0E0,0E0,0E0,0E0,0E0,0E0,0E0,0E0,0E0,0E0,0E0,0E0,0E0,0E0,0E0,0E0,0E0,0E0,0E0,0E0,0E0,0E0,0E0,0E0,0E0,0E0,0E0,0E0,0E0,0E0,0E0,0E0,0E0,0E0,0E0,0E0,0E0,0E0,0E0,0E0,0E0,0E0,0E0,0E0,0E0,0E0,0E0,0E0,0E0,0E0,0E0,0E0,0E0,0E0,0E0,0E0,0E0,0E0,0E0,0E0,0E0,0E0,0E0,0E0,0E0,0E0,0E0,0E0,0E0,0E0,0E0,0E0,0E0,0E0,0E0,0E0,0E0,0E0,0E0,0E0,0E0,0E0,0E0,0E0,0E0,0E0,0E0,0E0,0E0,0E0,0E0,0E0,0E0,0E0,0E0,0E0,0E0,0E0,0E0,0E0,0E0,0E0,0E0,0E0,0E0,0E0,0E0,0E0,0E0,0E0,0E0,0E0,0E0,0E0,0E0,0E0,0E0,0E0,0E0,0E0,0E0,0E0,0E0,0E0,0E0,0E0,0E0,0E0,0E0,0E0,0E0,0E0,0E0,0E0,0E0,0E0,0E0,0E0,0E0,0E0,0E0,0E0,0E0,0E0,0E0,0E0,0E0,0E0,0E0,0E0,0E0,0E0,0E0,0E0,0E0,0E0,0E0,0E0,0E0,0E0,0E0,0E0,0E0,0E0,0E0,0E0,0E0,0E0,0E0,0E0,0E0,0E0,0E0,0E0,0E0,0E0,0E0,0E0,0E0,0E0,0E0,0E0,0E0,0E0,0E0,0E0,0E0,0E0,0E0,0E0,0E0,0E0,0E0,0E0,0E0,0E0,0E0,0E0,0E0,0E0,0E0,0E0,0E0,0E0,0E0,0E0,0E0,0E0,0E0,0E0,0E0,0E0,0E0,0E0,0E0,0E0,0E0,0E0,0E0,0E0,0E0,0E0,0E0,0E0,0E0,0E0,0E0,0E0,0E0,0E0,0E0,0E0,0E0,0E0,0E0,0E0,0E0,0E0,0E0,0E0,0E0,0E0,0E0,0E0,0E0,0E0,0E0,0E0,0E0,0E0,0E0,0E0,0E0,0E0,0E0,0E0,0E0,0E0,0E0,0E0,0E0,0E0,0E0,0E0,0E0,0E0,0E0,0E0,0E0,0E0,0E0,0E0,0E0,0E0,0E0,0E0,0E0,0E0,0E0,0E0,0E0,0E0,0E0,0E0,0E0,0E0,0E0,0E0,0E0,0E0,0E0,0E0,0E0,0E0,0E0,0E0,0E0,0E0,0E0,0E0,0E0,0E0,0E0,0E0,0E0,0E0,0E0,0E0,0E0,0E0,0E0,0E0,0E0,0E0,0E0,0E0,0E0,0E0,0E0,0E0,0E0,0E0,0E0,0E0,0E0,0E0,0E0,0E0,0E0,0E0,0E0,0E0,0E0,0E0,0E0,0E0,0E0,0E0,0E0,0E0,0E0,0E0,0E0,0E0,0E0,0E0,0E0,0E0,0E0,0E0,0E0,0E0,0E0,0E0,0E0,0E0,0E0,0E0,0E0,0E0,0E0,0E0,0E0,0E0,0E0,0E0,0E0,0E0,0E0,0E0,0E0,0E0,0E0,0E0,0E0,0E0,0E0,0E0,0E0,0E0,0E0,0E0,0E0,0E0,0E0,0E0,0E0,0E0,0E0,0E0,0E0,0E0,0E0,0E0,0E0,0E0,0E0,0E0,0E0,0E0,0E0,0E0,0E0,0E0,0E0,0E0,0E0,0E0,0E0,0E0,0E0,0E0,0E0,0E0,0E0,0E0,0E0,0E0,0E0,0E0,0E0,0E0,0E0,0E0,0E0,0E0,0E0,0E0,0E0,0E0,0E0,0E0,0E0,0E0,0E0],"parents":[2147483647,0,0,1,1,2,2,3,3,4,4,5,5,6,6,7,7,8,8,9,9,10,10,11,11,12,12,13,13,14,14,15,15,16,16,17,17,18,18,19,19,20,20,21,21,22,22,23,23,24,24,25,25,26,26,27,27,28,28,29,29,30,30,31,31,32,32,33,33,34,34,35,35,36,36,37,37,38,38,39,39,40,40,41,41,42,42,43,43,44,44,45,45,46,46,